1126 100
<div 0.08623731 0.38259938 -0.028246708 -0.0701094 0.07772071 -0.4284606 -0.03639845 0.26313752 0.047370493 -0.473349 0.19127591 -0.24081442 -0.36204162 0.29149064 0.14233865 -0.03993878 0.25952262 0.08108413 -0.16695273 -0.10727328 0.024787394 0.15410051 0.06223406 -0.17418478 0.15663953 -0.062239103 -0.11326341 -0.10786688 0.05207794 0.18951243 -0.14768498 -0.09895689 0.17325589 -0.36855677 -0.1370276 -0.059097167 -0.27553123 -0.20302422 -0.116053194 -0.19614959 -0.06332898 -0.043640375 0.25150487 0.34821138 -0.04742859 0.035403818 -0.17815922 -0.0024318465 0.034799684 0.5394215 -0.105416894 -0.4059353 -0.014704867 0.096316546 0.102741174 -0.012666487 -0.027502531 -0.24126425 -0.14916644 -0.17485116 0.1613381 0.11614964 -0.3758563 0.14039506 -0.23010094 0.3655678 -0.1618802 0.13291991 0.031191321 -0.06908788 0.09830057 0.09639603 0.44837588 -0.4103775 0.40925762 0.18395028 0.09986637 -0.19622397 -0.37057784 -0.119247034 -0.019113425 0.09228384 -0.324129 0.25906128 0.35928026 0.03426816 0.18289934 -0.013301423 -0.4000581 0.037930023 -0.17821808 -0.09757825 -0.029080527 -0.07906248 0.16658328 0.31534624 -0.35065114 -0.19579478 -0.03648678 0.13054603
</div> -0.040631182 0.27064845 -0.06528826 -0.029466674 0.083378345 -0.33559737 -0.018185148 0.30315757 0.08685239 -0.5000685 0.15697712 -0.226158 -0.44049358 0.15484817 0.21808478 -0.007080341 0.23392144 -0.1430293 -0.16226241 -0.15419865 0.0010891589 0.14677458 0.028439686 -0.19321628 0.17236938 -0.16981342 -0.078213245 -0.07218816 -0.010956397 0.13078688 -0.13337728 -0.045660567 0.09769891 -0.3613885 -0.11587349 0.005333186 -0.2595911 -0.2671434 -0.055561192 -0.28675926 -0.048664823 -0.039270755 0.09048437 0.4035599 0.054194063 -0.0772612 -0.041507963 -0.0954492 0.17476095 0.6690148 -0.04064732 -0.50761867 0.054217488 0.058073767 0.11573819 -0.01951943 -0.029354516 -0.19627836 -0.20738535 -0.17547596 0.15711026 0.049428497 -0.33157188 0.12078437 -0.23328692 0.62963027 -0.027623795 0.11163057 0.036513727 0.085614294 0.050616976 0.23183389 0.53088367 -0.38279465 0.50131935 0.2421172 0.20194095 -0.30998233 -0.45773646 -0.21503218 -0.08775359 0.060695108 -0.41615644 0.2456236 0.31262928 0.01306048 0.21302706 -0.050371297 -0.42405337 0.09159065 -0.008232642 -0.10172198 -0.06356997 -0.074850194 0.22617693 0.33806226 -0.26217645 -0.13328977 0.020631628 0.15810065
<a 0.006508768 0.29913583 0.1557293 -0.0712089 0.24669002 -0.14995778 -0.009382829 0.115097985 -0.13956659 -0.11290263 0.047246575 -0.37861046 0.19290116 0.026319688 0.21289037 -0.103352346 -0.020629615 0.014692808 0.12847948 -0.0705239 -0.07511647 -0.05609099 -0.28272662 -0.029834807 0.14406796 -0.07151283 -0.20579422 0.20849508 0.058658652 0.043349054 0.00589328 -0.05400245 -0.2576706 0.086086206 -0.20960851 -0.0835559 0.0248062 -0.24092886 -0.07564265 -0.22928497 -0.3035544 -0.044652376 -0.009748684 0.46282113 0.08945317 0.0035904758 -0.18690637 -0.1401165 -0.07033605 0.28508085 -0.17914356 -0.25659606 0.12769604 -0.26319835 0.040998906 0.00850719 -0.15615742 -0.03294754 -0.103228055 -0.28957862 -0.00022144537 -0.07562494 -0.15847343 -0.05354325 -0.23219883 0.59041744 0.18915121 0.096481904 -0.016714126 -0.01435713 -0.20435469 0.25446194 0.39385104 -0.28467003 0.06568966 0.41999838 -0.00039594056 -0.19740978 -0.5246131 -0.07346191 -0.047404245 -0.03348997 -0.33669993 0.35042882 0.43703723 0.14019835 0.15452333 -0.2454842 -0.010986609 0.0032581242 -0.28465617 0.006405967 -0.097759336 -0.17557493 0.41783014 0.40974948 0.03255493 0.19519302 0.3079348 -0.1637247
{ -0.6212564 0.55466753 -0.07221731 -0.15452302 0.024199974 -0.1382049 -0.06620001 -0.09973563 0.07047245 -0.18628414 -0.20331672 0.036814567 0.349563 0.021411644 0.24899977 -0.53161836 0.5107722 0.10664618 -0.029576689 0.4196881 0.047799777 0.06513075 0.29867145 -0.19544333 -0.37174183 0.19182742 0.08941146 -0.44362617 0.013004967 0.62233126 -0.117528334 -0.051759917 -0.09984278 -0.30155775 -0.2985279 0.78549653 0.12575954 -0.4251511 -0.3589551 -0.01060632 0.2417376 -0.09616925 0.5283413 0.33203387 -0.2926144 -0.45094627 -0.20975025 -0.41856402 0.20665449 -0.2572537 -0.16816352 -0.3392003 0.37934685 0.024411941 -0.6561916 -0.2219814 0.1407412 -0.12155013 -0.11066814 -0.5758003 0.35292867 0.06296682 -0.097427204 0.32782206 0.095222734 -0.105680786 -0.41345474 0.34132603 -0.47439992 -0.29812202 -0.01051114 0.07358538 0.4673873 0.26695362 0.32008606 0.053183716 -0.35845622 0.45515457 -0.16440904 0.40344858 0.021871006 0.01783791 0.20787166 0.4678407 0.3694286 -0.10149655 0.15465829 0.18704194 -0.06760091 -0.13375565 -0.08745953 0.29254106 -0.51268417 -0.30803525 -0.13103212 0.39885008 0.24790098 -0.4893258 0.3759203 0.08858098
<span -0.3857246 -0.026929066 -0.16872631 -0.28182018 -0.23905778 0.10016745 0.5429969 0.041240737 -0.3752809 -0.43998328 0.23479018 -0.36008224 -0.81868505 0.28206238 -0.15655553 0.024640718 0.18870856 0.063246936 -0.031174691 0.20867388 -0.13449615 0.0724878 -0.10870061 0.17109859 0.14070815 -0.290715 -0.060310375 -0.13049924 -0.12069381 -0.046932068 0.03646654 0.29903874 0.2019758 -0.30490974 0.11153667 -0.09037418 -0.064352475 -0.5638112 -0.023795366 -0.26055652 0.18935946 -0.17773706 0.12549835 0.5823133 0.0007330675 -0.39742115 0.1772012 -0.08445605 0.4729579 0.551646 -0.096786804 -0.42144328 0.08763883 0.04715266 0.1256045 0.12062771 -0.06367742 -0.102586836 -0.08310045 -0.4289069 0.16349414 -0.10596457 -0.25458014 0.16477592 -0.40780193 0.5287868 -0.3078891 0.11655565 -0.10431431 0.28049263 -0.19973002 0.2536173 0.42441732 -0.5273933 0.6909928 0.4596234 0.22733517 -0.042759303 -0.26979282 0.15526 0.05210587 -0.049305946 -0.50821894 0.11155277 0.09917136 0.1804901 0.26795557 0.08588372 -0.6751283 0.007777343 0.14899531 -0.28593007 -0.29769093 -0.0013089044 0.28194922 0.09531071 -0.22077727 -0.0575117 0.40153116 0.06672618
} -0.6974996 0.4946952 -0.19498023 -0.111372605 -0.060320854 -0.05816413 -0.057926092 -0.14679356 0.041027207 -0.05100239 -0.27559242 0.056862745 0.5215881 0.047029745 0.27414003 -0.5608389 0.5666183 0.15252167 -0.022244498 0.4599183 0.092791766 0.073035754 0.25791743 -0.28548816 -0.39906937 0.1447248 0.012910356 -0.5347291 -0.09944403 0.538682 -0.094681635 0.029571343 -0.18690798 -0.27686659 -0.30831778 0.8159139 0.13349853 -0.42831424 -0.33748174 0.1102509 0.27461198 0.0145636955 0.43911856 0.33721647 -0.342647 -0.5446137 -0.11993334 -0.37301466 0.31581396 -0.30556762 -0.08325041 -0.37440294 0.4677707 0.014872716 -0.6736883 -0.2374237 0.14522898 -0.15826257 -0.22968021 -0.57625663 0.34554237 0.058936626 -0.08949445 0.31916913 0.16081865 0.0029634752 -0.51670545 0.3063866 -0.5992827 -0.25111598 0.022115903 0.058088377 0.42354384 0.20549981 0.36155093 0.10302712 -0.330579 0.44987503 -0.12113068 0.36833185 -0.057677325 0.0328995 0.14782135 0.46212772 0.40506965 -0.10757733 0.0879343 0.23535687 0.04168647 -0.017520282 0.07300981 0.31666347 -0.56450915 -0.37849978 -0.091161676 0.39288592 0.18951258 -0.5200896 0.5439068 0.12256326
<li><a 0.11062328 0.27745897 0.42359987 -0.0920744 0.18461423 0.02621458 0.8534577 0.008697672 -0.48504108 -0.5983358 0.48468798 -0.8804681 -0.10260776 0.0018183523 -0.012195902 0.08026854 0.032155108 0.21226873 0.5178012 -0.3909241 -0.28226686 0.066783026 0.34996086 0.019737728 0.29187924 0.35630593 -0.4657033 0.15836148 0.46567112 -0.2027943 -0.4076404 0.27081603 -0.36365798 0.10970169 -0.25988102 0.10035926 0.17952499 -0.59806675 -0.20407268 -0.20878129 0.2833187 -0.7044376 0.27123007 0.22868147 0.055871516 0.22125575 -0.6818591 -0.69389313 -0.33926618 0.02986512 -0.42082834 -0.54495716 0.3871526 -0.13130961 0.20302734 -0.042445924 -0.27127996 0.30676728 -0.46064374 -0.5470919 -0.52236927 -0.70641756 0.14144099 0.6244591 -0.098065 0.75613517 -0.27663326 0.45718694 -0.091464475 0.09306946 -0.8527224 0.82745445 1.0712003 -0.520496 -0.12184587 0.18519573 -0.18341844 -0.592711 -0.51950186 0.58056086 0.037274394 -0.41490108 -0.4179411 0.66831374 0.91623753 0.33063072 0.42253917 -0.13519967 -0.066396706 0.2013891 -0.26897982 0.4362396 -0.45508638 -0.38512513 0.68823874 0.8043593 0.42954332 0.21162736 0.7947634 -0.3470592
<li -0.18247482 0.23967311 0.4111125 0.08664696 0.33928743 0.030123299 0.49138245 -0.04902622 -0.33510965 -0.40510657 0.21620023 -0.5155381 0.012052736 0.1550418 0.12250435 -0.16822912 0.029181186 0.09103381 0.07792735 -0.12724772 -0.28042662 0.008345513 0.099087946 -0.3869052 0.10360626 -0.30580866 -0.1825548 0.092509426 -0.044685498 0.08870408 -0.062080353 -0.016339947 -0.12960167 -0.13363725 -0.04656949 -0.08660296 -0.048925098 -0.25412652 -0.23687336 -0.2403962 -0.03373902 -0.277893 0.03350709 0.8316827 0.20788835 -0.088863805 -0.23868226 -0.28985444 0.039784733 0.45031863 -0.27077317 -0.41746005 0.32167786 -0.17507784 0.14319411 0.04643366 -0.0002794399 0.17805128 0.036641374 -0.037870374 0.024774069 -0.38249728 -0.24032621 0.15198736 -0.3469062 0.67474806 -0.15114422 0.40339914 -0.12581182 0.112680055 -0.49864575 0.5013424 0.8930043 -0.37906092 0.27648568 0.19541913 0.23311654 -0.43222255 -0.57451755 -0.09693339 -0.14368644 0.009903524 -0.48781535 0.2700797 0.5408672 0.15299043 0.23460224 -0.14580834 -0.14237228 0.04271843 -0.36883911 -0.028284507 -0.27427763 -0.03179419 0.55265707 0.61082023 0.1252431 0.3616824 0.7186387 -0.3216875
</li> -0.20693345 0.29325038 0.40776056 0.032760955 0.3105898 0.008882515 0.44288287 0.06700772 -0.33884934 -0.4200455 0.22724314 -0.57190734 0.051881146 0.074973226 0.12692864 -0.1436622 -0.015896335 0.050564304 0.108137004 -0.24159673 -0.22345369 -0.005806576 0.03224144 -0.3066114 0.0710582 -0.288817 -0.17812555 0.12557273 -0.008600777 0.020383596 -0.15024613 0.0034352008 -0.16893439 -0.09637441 -0.06781669 -0.021037957 -0.0023938958 -0.25891867 -0.2357909 -0.20299856 0.003717419 -0.29287976 -0.04442656 0.7475471 0.22953331 -0.1428959 -0.17190197 -0.26752526 0.06891912 0.48398894 -0.22260247 -0.3725383 0.35639527 -0.16580544 0.1777691 0.0580193 -0.12025479 0.20243086 0.037409086 -0.1250442 -0.022600379 -0.49811298 -0.1862348 0.1737573 -0.2582681 0.6779731 -0.02226763 0.3753117 -0.10321032 0.21455087 -0.44952148 0.5224991 0.86358184 -0.43760914 0.28948408 0.24558768 0.19965267 -0.50778353 -0.6606212 -0.031995814 -0.14761558 -0.029375896 -0.51685447 0.2415216 0.50234467 0.12329777 0.20304397 -0.18268523 -0.109798126 0.12616082 -0.29310176 0.0016723154 -0.27495492 -0.06474857 0.65137446 0.603973 0.186473 0.3946367 0.6790301 -0.23977984
и -0.042247605 0.4944401 0.48257995 0.11298793 0.08053835 -0.2336632 0.37695727 0.41892198 -0.4072721 -0.4881807 0.40603247 -0.63058 0.036615342 0.10544259 -0.10838162 -0.2694025 0.08981146 0.030966157 0.49741897 -0.20574798 -0.10677324 -0.16325842 0.0178933 0.085100986 0.13915844 0.4209486 -0.4109906 0.6482064 0.09958852 0.041995555 -0.12689817 0.19122119 -0.4372916 0.03404473 -0.3067533 0.21109407 0.5881329 -0.570306 -0.010106633 -0.34112573 -0.104704015 -0.53702617 -0.11418946 0.38442928 -0.081116155 -0.012249777 -0.5684144 -0.10341935 -0.03016682 0.18038148 -0.5455521 -0.27297658 0.3082843 -0.43044597 0.17628573 -0.035272457 -0.23182161 0.27667603 -0.23409386 -0.5809392 -0.23324053 -0.532371 0.032800272 0.03892279 -0.40067744 0.662842 0.12766154 0.25688967 -0.20905767 0.10936477 -0.58146334 0.6348072 0.57020587 -0.29760107 -0.0021124631 0.52220803 -0.30675364 -0.21831049 -0.5333112 0.32762596 0.16700226 -0.1233464 -0.26540765 0.68645334 0.66065824 0.2218933 0.5622963 -0.3490095 0.020452851 0.20197664 -0.39617598 0.13475478 -0.3708377 -0.39175913 0.50106007 0.6068766 0.25764388 0.01203398 0.49296954 -0.41358265
0 -0.49670035 0.24150246 0.10978631 -0.08289814 -0.32488132 0.018345464 0.055034064 0.11123172 -0.07964704 -0.11238064 -0.06982584 0.0881692 0.45939544 0.25604385 0.116549514 -0.6005809 0.43532583 0.22662516 0.1555025 0.55018663 0.19363791 -0.42399058 0.33139637 -0.09686406 -0.6334687 0.44143006 0.12448103 -0.2019986 0.23889358 0.6105964 -0.19300435 0.07764682 -0.25252128 -0.25970393 0.020560572 0.50569725 0.7592823 -0.57835424 -0.24573544 0.067960344 -0.0022850155 -0.15405566 0.18541686 0.45070687 -0.28181207 -0.7267144 -0.18897578 0.06411741 0.4429253 -0.51783764 -0.28766266 -0.27631122 0.49319795 0.07097958 -0.5510015 0.0028052393 -0.44131276 0.003796187 0.08873209 -0.73327965 -0.029555066 -0.043648396 -0.12406267 0.3433986 0.0132535985 -0.06852801 -0.4013488 0.1259257 -0.5519938 -0.28125894 -0.23411956 0.33126193 0.3143329 0.032018118 0.05752232 0.13349235 -0.18928583 0.5949534 0.04517773 0.3586376 0.047915086 0.17554823 0.29048645 0.29475766 0.22911382 -0.19221026 0.13197719 0.050855633 0.32875353 -0.1091119 0.044300027 0.11956207 -0.5721753 -0.31467515 -0.14722604 0.48106462 0.70104253 -0.3145501 0.39196056 0.056544736
to -0.16829383 0.022996448 -0.15714307 -0.28386462 -0.030657647 -0.083656 0.043580566 -0.05479141 0.07904069 -0.09955378 -0.07798494 -0.25628093 0.016607776 -0.18463996 0.27905464 0.050752807 0.27515462 -0.1043233 -0.042203866 -0.065372884 0.03876047 0.18264598 -0.03285424 -0.14150879 -0.15651706 -0.2509929 -0.06792175 -0.3019366 0.10705935 -0.050971422 -0.33681473 0.053751256 -0.06225527 -0.06131546 -0.05310625 0.031203382 -0.21138659 -0.31056845 -0.38947722 0.08889716 0.14776586 0.18674631 0.18102925 0.3633187 0.32465494 -0.22260717 0.08094797 -0.24989547 0.107494466 0.2705318 0.15989247 -0.38720593 0.31110448 0.17024703 -0.16578646 0.034396697 -0.43128723 -0.15055086 -0.22042245 -0.24631625 -0.041763443 -0.074374475 -0.31848368 0.4223571 0.23335439 0.42183408 -0.22171198 0.16466936 -0.03439764 0.08495759 -0.10395378 0.11836523 0.601079 -0.49261737 0.26827428 0.12948956 0.22665271 -0.36343428 -0.40590644 0.1489827 -0.26623347 0.053232394 -0.44414815 0.10270536 0.33629578 -0.0055335 -0.17589153 0.16019514 -0.0043858313 0.09377096 0.2609342 0.056765247 -0.22993182 -0.13368355 0.349281 0.26807913 0.06708782 0.14299132 0.32826102 0.22517091
в -0.07996559 0.6116803 0.5710754 0.10072444 0.22242141 -0.17642842 0.09241788 0.326921 -0.39981553 -0.2792663 0.23254998 -0.5275985 0.22397244 0.19033837 -0.009907053 -0.5408557 0.037516315 0.12811488 0.4379945 0.03511197 -0.11147628 -0.19054574 -0.3044947 0.077597514 0.028053476 0.3721666 -0.3768142 0.57916474 -0.03495456 0.24825034 -0.006326653 0.0060768803 -0.46564585 0.11068062 -0.28632644 0.2129013 0.52178556 -0.43522123 -0.090548225 -0.3807494 -0.2521569 -0.40566307 -0.14200312 0.7476092 -0.064357415 -0.1418631 -0.3720604 -0.005387209 -0.0046778866 0.22732176 -0.59713215 -0.10639629 0.3731227 -0.54003584 0.015683055 0.027679592 -0.24162361 0.17352721 0.031012604 -0.59048444 0.057382528 -0.34650746 -0.068641916 -0.10761517 -0.5377058 0.57060796 0.32068336 0.20056799 -0.3118156 -0.024772497 -0.43268597 0.45657116 0.40624285 -0.21672843 0.07307609 0.77046645 -0.34652877 0.034162734 -0.5805032 0.19415213 0.11436227 0.07057816 -0.28860667 0.57332104 0.61471665 0.24307589 0.5181291 -0.46266264 -0.023641737 0.04325144 -0.6238423 -0.09401505 -0.29836836 -0.39968404 0.42618853 0.5742061 0.19426776 0.13125521 0.44121242 -0.4543369
= -0.7273364 0.6371627 -0.39216653 -0.08318365 -0.12385137 -0.5092457 -0.15900321 -0.42112777 0.3066085 -0.07147172 -0.36901242 -0.34330472 0.08262861 -0.15883864 0.6053954 -0.12904067 0.61722094 0.04672038 -0.15435384 0.2569953 0.018564323 0.5709452 -0.17446767 -0.09804674 -0.04901626 -0.060033485 -0.15835747 -0.49458382 -0.09573332 0.18259867 0.052583378 0.12500714 -0.005277334 -0.07531413 -0.55043554 0.6790269 -0.47974285 -0.5846518 -0.3906509 0.025374342 0.37160766 0.03714143 0.752817 0.29822564 -0.369861 -0.38088256 -0.19501711 -0.5815504 0.23354158 0.036148608 0.22707509 -0.4676423 0.21619444 -0.19364665 -0.44120625 -0.01054158 0.23198445 -0.45168486 -0.6302684 -0.42417502 0.28969008 0.33255857 -0.31104633 0.3132218 0.10169115 0.25834295 -0.45915046 0.3559438 -0.1515272 -0.21963105 0.095736235 -0.22071053 0.46257082 0.020835478 0.7393272 0.6164548 -0.11008389 0.0052165803 -0.28598124 0.12432458 0.049043037 -0.028228637 -0.06627367 0.62561244 0.5117131 0.027779857 0.07552132 0.54198015 -0.19109048 0.03906348 0.3568017 0.21155545 -0.29901388 -0.35283652 -0.032486014 0.29296649 -0.22362372 -0.6356095 0.65220773 0.2699354
the -0.44102168 -0.0021169917 -0.22378442 -0.33404344 -0.25678656 -0.25853133 0.0122797545 0.016156795 0.19513308 0.078531586 -0.2965821 -0.18949771 -0.06322709 -0.4091466 0.45418593 0.014244333 0.3793919 -0.2260711 0.029260943 0.08952596 0.17075878 0.270507 -0.15500826 0.04838355 -0.2389014 -0.25658426 0.06771494 -0.502877 0.08966709 -0.12427233 -0.27766782 0.07379944 0.05031412 0.12100366 -0.100836955 0.12034664 -0.28833243 -0.42092314 -0.26665524 0.12370642 0.41895875 0.3297882 0.050093185 0.32759038 0.27471384 -0.20808148 0.03659687 -0.38813356 0.2712359 0.05461614 0.3731878 -0.60368794 0.3073045 0.084672 -0.33022118 0.21384214 -0.6206067 -0.3721946 -0.51757675 -0.49380624 -0.19992772 0.35870352 -0.49485976 0.26723543 0.33231282 0.58535045 -0.23045309 0.14277579 -0.018604884 0.032203402 -0.1835645 0.14112417 0.70336306 -0.5783537 0.51317024 0.41537502 0.44520268 -0.36125135 -0.48277026 0.16724409 -0.2676929 0.1096952 -0.25434664 0.35661533 0.34378856 -0.17785577 -0.19588006 0.2971264 0.04524014 0.06426857 0.58922166 -0.012657323 -0.22551312 -0.17010517 0.3505286 0.36491936 0.09356889 0.1070072 0.32243842 0.4042178
class="top10__item"> -0.29176205 0.6221263 0.7135864 -0.09099456 0.60430855 0.11910194 0.3132285 -0.15920484 -0.39748943 -0.27304283 0.15122981 -0.6342838 0.5434376 -0.15509628 0.19527037 -0.5449026 -0.042403642 -0.06514966 0.46865168 -0.093972854 -0.32009622 -0.079508655 -0.032454293 -0.41397136 -0.18000679 -0.08513567 -0.30842873 0.23338833 0.10110762 0.27949023 -0.15958281 -0.16329488 -0.65482914 0.18676807 -0.30122006 0.102545336 0.087663375 -0.34858605 -0.51536983 -0.20376377 -0.09316589 -0.37557772 0.032811146 1.1946971 0.4413743 -0.14385043 -0.3151905 -0.7143485 -0.1296493 0.25469157 -0.50857276 -0.19491939 0.6910455 -0.403332 -0.09779946 -0.17249744 -0.2768193 0.23928097 0.13259445 -0.38283873 0.10437092 -0.6806368 -0.24518763 0.2134864 -0.27988517 0.6605249 0.24026647 0.438504 -0.2942755 -0.0758439 -0.76922107 0.7385524 1.1233402 -0.21903135 0.054812465 0.5103238 -0.24558382 -0.38610756 -0.91532874 0.17717092 -0.10822282 -0.04850195 -0.4371235 0.50610924 0.96810883 0.13184822 0.28034678 -0.34470174 0.09844466 0.028098447 -0.69377625 0.17590134 -0.437251 -0.39140788 0.77195597 0.9369171 0.55963737 0.74106383 0.98931605 -0.5361019
<input 0.04287154 0.16600609 0.11310028 -0.15973322 0.3167616 -0.27879587 -0.33778387 0.36423108 0.16343722 -0.4739482 -0.17298399 -0.16489583 -0.5897737 0.21397732 0.5306214 -0.0063205436 -0.052577835 0.18983442 0.092335664 0.0022473237 -0.15026039 0.4443635 0.12634805 0.073092684 0.25827074 0.5740354 0.19994755 -0.44737497 0.31024545 0.17172074 -0.5456635 -0.31883773 0.18705879 -0.3571237 -0.22371514 0.61926275 -0.13719642 -0.17613414 -0.0148516325 -0.31087708 0.31058362 -0.22974867 0.47424656 0.283917 -0.059222426 -0.03462964 -0.43854985 -0.58508253 0.063888416 0.1544078 -0.20376006 -0.6594683 0.23790142 0.4988456 -0.2800459 0.07895602 -0.029178198 -0.28850853 -0.31647828 -0.48205733 0.07430771 0.5145465 -0.13659622 0.7753248 -0.0859116 0.2861026 -0.27944586 0.34883404 0.08040829 -0.15894206 -0.029573161 0.41974807 0.5118494 -0.14120348 0.15668401 0.14455475 0.06066865 0.009341209 0.100556225 0.18556978 0.009966398 -0.2748605 -0.078704424 0.42599782 0.22687854 0.20998585 -0.108171515 0.044611547 -0.1459228 -0.10886578 -0.061215002 0.47136632 -0.11827862 -0.18664981 -0.13982803 0.70680267 0.11106063 -0.4299864 -0.18089281 0.323186
class="top10__link">Как -0.27750036 0.6272386 0.7311068 -0.057865597 0.596177 0.07932541 0.31790224 -0.07180696 -0.40153036 -0.32830766 0.16475563 -0.6389012 0.5256798 -0.123211525 0.1975599 -0.55782914 -0.036237143 -0.03970813 0.449844 -0.12952276 -0.2920858 -0.1101942 -0.043581583 -0.41546097 -0.14554071 -0.07092769 -0.30438328 0.28559545 0.044430666 0.27073362 -0.17133768 -0.1452749 -0.642072 0.12524533 -0.30302516 0.12821715 0.11463091 -0.3361405 -0.46390936 -0.22653854 -0.09622318 -0.3909452 0.0016525532 1.1772239 0.4068287 -0.18565871 -0.31760737 -0.6530146 -0.0714927 0.31568635 -0.50304675 -0.20657888 0.67817336 -0.43208507 -0.047766168 -0.15267457 -0.25001794 0.2599952 0.11213334 -0.35483575 0.09541607 -0.6902509 -0.22070539 0.18562777 -0.30644214 0.715217 0.25111443 0.4446251 -0.2781119 -0.041131847 -0.7320416 0.73175174 1.1065035 -0.21084762 0.09021066 0.53533643 -0.19555399 -0.38028032 -0.88692904 0.15967104 -0.10522832 -0.022158887 -0.4380697 0.48751253 0.9327342 0.13919449 0.3249029 -0.361759 0.099400155 0.0460929 -0.65680313 0.16352719 -0.3913493 -0.38576153 0.77773786 0.9280386 0.514587 0.6867626 0.95802623 -0.5436811
</a> 0.04901259 0.23364922 0.15515307 0.06973236 0.015786985 -0.30408716 0.02092541 0.419076 -0.24375482 -0.023738641 0.030697897 -0.34222823 0.035766482 0.08397214 0.26359808 -0.04677767 -0.00928581 -0.1395039 0.25694495 -0.09189409 0.07853466 -0.098341495 -0.40875596 0.2532399 0.06746374 0.07456369 -0.23580664 0.2987009 0.080746815 -0.033078764 0.14860441 0.0039237123 -0.13395175 0.16356647 -0.057351667 -0.0074524134 0.25164247 -0.28820094 0.18672177 -0.3835657 -0.24429084 -0.17314063 -0.21944122 0.3594456 -0.039327424 0.035042834 -0.29457062 0.15599339 0.0038400325 0.1596421 -0.0951779 -0.3013702 0.03546694 -0.31579307 0.13711084 0.20898168 -0.34807548 -0.065294415 -0.16416602 -0.51617324 -0.21672869 0.20913383 -0.17229444 -0.2649508 -0.2616203 0.7098385 0.3045276 0.12949516 0.054472744 0.15707432 -0.26021397 0.2758641 0.20086908 -0.4018917 0.19122252 0.5364832 0.096673556 -0.113850825 -0.46558544 -0.1717776 0.0015855924 0.113167785 -0.28462842 0.53044605 0.30093214 0.18365899 0.22906215 -0.14354755 0.027770866 0.09445334 -0.0728858 -0.18414724 -0.1354212 0.026158918 0.43592343 0.33810383 -0.0835783 0.014834509 0.123422384 -0.05499717
</span> -0.5304295 -0.046313196 -0.21827672 -0.12086812 -0.40286565 0.14778742 0.5335369 0.0315928 -0.35016736 -0.4751079 0.22653018 -0.32501194 -0.8542796 0.32097593 -0.14422704 -0.06463658 0.33196348 -0.04505574 -0.052416842 0.3236348 -0.13587461 0.08818505 -0.16227195 0.07331015 0.07960368 -0.3452505 0.029371107 -0.15698549 -0.2884791 0.03308837 0.060568273 0.3925794 0.19083083 -0.33433828 0.0961042 0.055455662 -0.055273596 -0.7428413 0.0049192742 -0.35910898 0.3392576 -0.1295782 0.037910346 0.7196722 -0.13305357 -0.55845654 0.25859663 -0.022914601 0.76465183 0.6237076 -0.07201664 -0.58536375 0.10288972 -0.003695718 0.05637975 0.18774281 0.0240232 -0.058804072 -0.17862532 -0.44355908 0.22404341 -0.0038413736 -0.27782065 0.031923153 -0.5106168 0.58336985 -0.34817442 0.09617812 -0.24643174 0.3043408 -0.15859377 0.30703282 0.47460118 -0.4997625 0.9269021 0.5728052 0.4272732 0.00065797614 -0.3045356 0.1151597 0.10410206 0.08895279 -0.50265485 0.13712408 0.020464495 0.10845269 0.2811682 0.090597846 -0.6845676 0.018262481 0.25738722 -0.2995348 -0.46119404 0.08115697 0.13162087 0.10611609 -0.29343513 -0.1746224 0.47955424 0.12559895
<img 0.23873563 0.24828945 0.05967533 -0.035189904 0.034490306 -0.35026482 -0.050116956 0.29342163 -0.16479953 -0.15686874 0.17138264 -0.40115964 -0.23225646 0.25869024 0.21164176 0.04068038 -0.0125644645 0.15853754 0.067517504 0.124861844 0.028046902 0.10448701 -0.35451415 0.34126306 0.33103883 0.38297954 -0.34771842 0.14088118 0.09846031 -0.08870308 -0.015481449 -0.028162368 0.004788357 0.0662871 -0.2725666 0.10898218 0.11338135 -0.3123117 0.15734203 -0.32751557 -0.20002787 -0.20282479 0.1271679 0.18818115 -0.18851233 0.05840393 -0.2450273 0.011065109 -0.09191908 0.24010006 -0.26547778 -0.2968574 -0.017448882 -0.14089769 0.048492145 0.14670259 -0.12893589 -0.24781969 -0.1557604 -0.56327754 -0.08063652 0.2697635 -0.09551011 -0.053226266 -0.29720628 0.56172836 0.0347603 0.057243966 0.11359172 -0.120631896 -0.106051505 0.15424243 0.09630304 -0.29553524 0.13908517 0.6403878 -0.17185684 0.0666421 -0.2562437 0.04210196 0.09440547 -0.04296391 -0.21585435 0.45142558 0.29131886 0.40712243 0.2775121 -0.19274248 -0.23023896 -0.03634065 -0.21680516 -0.07532445 -0.01314808 -0.16476889 0.2168784 0.2754604 -0.2577443 -0.12031272 -0.12764338 -0.060404178
color: -0.59640217 0.5834498 0.11727022 -0.112934634 -0.1779792 -0.14787062 -0.04235133 -0.013701613 0.06653902 0.015197755 -0.21356268 0.13299337 0.6076101 0.033170767 0.31579587 -0.68715763 0.59653205 0.06271846 0.060822602 0.6744964 0.11701755 -0.29291785 0.2881219 -0.07727673 -0.5409631 0.43105936 0.009506372 -0.17587249 0.16578299 0.70623153 -0.11896849 -0.009947397 -0.35489294 -0.1608476 -0.1071281 0.5578839 0.6289543 -0.6584174 -0.39220297 0.026484646 -0.07575581 -0.09481122 0.38095444 0.42868963 -0.13178378 -0.59910023 -0.23198155 -0.13655928 0.26816314 -0.4766246 -0.24083841 -0.26054856 0.5025069 -0.090273514 -0.7475002 -0.16192454 -0.33060175 -0.15580273 -0.18978924 -0.8944736 0.12950177 0.11220513 -0.36039105 0.31445915 0.10270984 -0.07366274 -0.19561297 0.29034063 -0.6340858 -0.37310147 -0.3001131 0.1691589 0.51088333 0.05466606 0.11348635 0.19560549 -0.4083267 0.59017134 -0.11186301 0.49596438 0.01929682 0.059171986 0.36372596 0.6191952 0.4893267 -0.10421583 0.095647216 0.13365622 0.21580881 -0.11913364 -0.04086234 0.066817045 -0.5781656 -0.4817186 0.036624894 0.5458789 0.4451839 -0.26986334 0.3172741 0.022056311
js-tooltip" -0.08911776 0.10809389 0.125436 -0.18967234 -0.47526985 -0.18279691 1.0271792 0.26625362 -0.6864247 -0.741184 0.5260285 -0.9496659 -0.75348455 0.4126662 -0.38071007 0.28114578 0.011678171 0.7876388 0.22348629 0.06640132 0.027456408 0.023493193 -0.09902864 0.5336364 0.37934124 0.16157645 -0.23744217 0.23172837 0.30398318 -0.39119443 -0.25906843 0.63032615 0.1618947 -0.1896023 0.08700561 0.12423336 0.45249778 -0.79896736 0.073856495 -0.13697402 0.3861927 -0.65460247 0.32610196 0.035575967 -0.31505826 -0.15656553 -0.35438973 0.13377444 0.2310711 0.20622009 -0.39254063 -0.46944848 0.016366633 0.06772717 0.35168195 0.5294105 -0.18987432 0.21135798 -0.24910598 -0.59808964 -0.334852 -0.40981644 -0.041796215 0.4104972 -0.26746884 0.4931686 -0.6312059 0.20656215 -0.022404771 0.39733997 -0.52034885 0.26776856 0.46217632 -0.7792456 0.3766137 0.392478 -0.045509223 -0.1890608 -0.095140256 0.69635767 0.13017069 -0.19576731 -0.3983991 0.2645856 0.30954883 0.40480155 0.4776604 0.001754641 -0.46885362 0.09161435 -0.0021960572 -0.111769386 -0.40584877 -0.13162911 0.49818197 0.17308216 -0.096221454 -0.32853678 0.4399084 -0.0906211
of -0.35736883 -0.0710859 -0.06804739 -0.46283945 -0.07930323 -0.15258923 0.014877187 -0.075846486 0.04526274 0.13965912 -0.22419158 -0.2662408 -0.0021211214 -0.44314507 0.41713414 -0.037432965 0.30940372 -0.35887054 0.103877075 0.006771258 0.001805366 0.26377273 -0.11437556 0.007882632 -0.21524704 -0.20103154 -1.2140823e-05 -0.33204818 0.131417 -0.1665988 -0.30854532 -0.03453982 0.010774586 0.3044264 -0.17933032 -0.038190193 -0.36152527 -0.39212126 -0.2892399 0.06513797 0.38240817 0.37532082 -0.0073090782 0.42781076 0.4721633 -0.059226334 0.033684395 -0.61886317 0.09849534 0.13262473 0.188724 -0.5473469 0.24864408 0.20645073 -0.32500097 0.09620047 -0.6783902 -0.28581867 -0.40087807 -0.45270923 -0.19133082 0.28814366 -0.4715058 0.24092972 0.2106256 0.63880575 -0.11792105 -0.020413062 -0.0067578238 0.025392089 -0.37514392 0.36392748 0.78623945 -0.5177243 0.38867337 0.53469414 0.35112035 -0.46846226 -0.7186341 0.18510467 -0.23783721 -0.007196486 -0.33796576 0.34742656 0.36217326 -0.102053344 -0.27842492 0.24555764 0.036180545 -0.015351725 0.40781602 0.06390765 -0.17519331 -0.1457734 0.41573718 0.4728151 0.18702771 0.40675253 0.31787887 0.30691463
class="Icon -0.43513826 0.032119 -0.025711183 -0.3001361 -0.44954416 -0.24715425 0.61251193 0.30779293 -0.3658571 -0.44633883 0.22912873 -0.599724 -0.5470627 0.31647405 -0.1851773 0.05555519 0.1968444 0.41426355 -0.009147675 0.08069488 0.085102886 -0.06787678 -0.1503188 0.22025496 0.091470554 -0.32840967 0.020888072 -0.03693598 -0.050658174 -0.2418514 -0.15143085 0.42081738 0.27369532 -0.20408352 0.07487443 0.043258365 0.20813689 -0.71997124 -0.020991549 0.016228229 0.2949123 -0.23103647 0.12830818 0.37288 0.0019838044 -0.38143393 0.021721132 0.047965325 0.51107466 0.48863155 -0.10235144 -0.53502136 0.07870363 0.13963301 0.19830166 0.4158001 -0.19899115 0.10994613 -0.20732166 -0.3964917 -0.022782633 -0.18508853 -0.33577037 0.14748834 -0.23321971 0.6199162 -0.502227 0.109232396 -0.040067818 0.47297826 -0.24591891 0.18343954 0.5346742 -0.7778073 0.71433747 0.38444367 0.36969826 -0.20123793 -0.36983806 0.2855746 -0.0025596817 -0.01481248 -0.595794 0.13023743 0.13357767 0.14521535 0.26222306 0.12683949 -0.34986728 0.09310583 0.22368993 -0.30932373 -0.3329664 -0.01866035 0.5599411 0.22588825 -0.12733962 -0.17143539 0.39748222 0.058366127
and -0.18749641 0.101435706 -0.18957822 -0.41702446 -0.056971785 -0.031791747 -0.1107606 -0.117466375 0.18479936 0.19973251 -0.18813111 -0.01844407 0.3095681 -0.28723407 0.34390816 -0.076942384 0.46092054 -0.31144807 0.009692906 0.004868124 0.0274865 0.08374823 -0.02563937 -0.15374202 -0.27727336 -0.054184638 -0.13930565 -0.37555072 0.09830105 0.12369881 -0.31423393 -0.004979727 -0.20980385 0.14565884 -0.18502975 -0.08014399 -0.13465765 -0.32310432 -0.45859078 0.22895034 0.08152241 0.3890667 0.08660216 0.30485353 0.361746 -0.24290448 0.13011156 -0.43947604 0.029432628 -0.0027263686 0.17657633 -0.3289892 0.28367177 0.02892801 -0.37921864 -0.1521656 -0.5835811 -0.21644087 -0.31590152 -0.3881608 -0.0291645 0.014121417 -0.35904276 0.36550003 0.3353743 0.400616 -0.10957774 -0.043347057 -0.120226696 -0.19340153 -0.12071966 0.12035077 0.5653785 -0.46073404 0.09727363 0.2177816 0.07507659 -0.23955356 -0.4243201 0.2671131 -0.15347365 0.12743738 -0.2311586 0.253291 0.4231687 -0.0077641862 -0.17054223 0.2370558 0.1345396 0.07068758 0.36503655 0.014127248 -0.18270348 -0.3418205 0.28189158 0.3079481 0.11802118 0.25702807 0.35347477 0.2710851
your -0.20484774 -0.1387715 -0.086234786 -0.431443 -0.07429508 -0.22695547 -0.09108997 0.07067566 0.015985442 0.022196611 -0.16831599 -0.32429504 -0.2900709 -0.3211883 0.47930142 0.0036765365 0.25657192 -0.21132019 -0.028908638 0.0011647085 -0.009233508 0.3723098 -0.18908244 0.093786046 0.0099693015 -0.054267276 -0.017993113 -0.3892263 0.08103607 -0.32096595 -0.5016815 -0.10445759 0.16711274 0.23419976 -0.27389213 0.0762516 -0.5333953 -0.35667038 -0.24197069 0.0592687 0.4820358 0.349818 -0.023456031 0.43659285 0.44705057 -0.031267453 0.15878563 -0.62926227 0.14269666 0.2969654 0.13414967 -0.64217323 0.23787664 0.30522618 -0.29499298 0.16216414 -0.69776845 -0.4090329 -0.47775945 -0.46807277 -0.14315492 0.40034154 -0.37621316 0.34598422 0.14509247 0.77971834 -0.16269131 0.036700025 0.0323988 0.013918511 -0.2348194 0.39759043 0.7584679 -0.64013135 0.49033642 0.67559975 0.4044977 -0.46778935 -0.6194575 0.17795697 -0.24678347 0.014773628 -0.4295383 0.33889428 0.30177927 -0.00037178487 -0.2487575 0.16125268 -0.087440096 -0.048817772 0.41872796 0.046084445 0.006835242 -0.19447473 0.38449967 0.48216853 0.0138008855 0.35700953 0.12004463 0.3559344
</ul> -0.030946117 0.128332 0.21528813 -0.09920882 0.19959325 -0.0376293 0.45428094 0.0538715 -0.17740016 -0.40691233 0.30015314 -0.6030749 -0.13267675 0.018118005 0.070397995 0.08987009 0.05088799 0.010367291 0.14940463 -0.30937448 -0.19194324 0.105848394 0.19642442 -0.17037982 0.2877834 -0.081429645 -0.2824309 0.046659067 0.09535001 -0.16796598 -0.31582046 0.06848216 -0.08851099 -0.063324615 -0.22652452 -0.040748354 -0.06528525 -0.34524494 -0.16041495 -0.13078278 0.08552458 -0.28390557 0.060576983 0.3557975 0.13232939 -3.786631e-05 -0.25964394 -0.44740304 -0.08104801 0.38081205 -0.15639584 -0.49266812 0.19787537 -0.042207375 0.2003884 -0.06509684 -0.055494063 0.17613168 -0.323824 -0.1849749 -0.23039661 -0.3993338 0.022328895 0.28771025 -0.10299213 0.7450557 -0.18028487 0.33865118 -0.02187895 0.11901885 -0.39212015 0.5176085 0.7590834 -0.45290667 0.15727168 0.12489409 0.07476931 -0.5553145 -0.5187979 0.10751721 -0.08155081 -0.2196444 -0.4781037 0.31330127 0.5233968 0.16688786 0.19858569 -0.10631206 -0.102424964 0.14531015 -0.027481586 0.189409 -0.21179701 -0.144115 0.5613312 0.5111299 0.14797261 0.20079538 0.5338618 -0.13600644
class="o-header__mega-item"><a -0.6519669 -0.46724018 -0.48591208 -0.78923374 -0.5237263 0.25998497 0.25838205 -0.13869442 0.03284244 0.32909924 -0.6037792 -0.08138442 0.1431892 -0.10978137 0.10427887 -0.09611668 0.49431205 -0.50034976 0.37581718 0.5390537 0.21668215 -0.14002758 -0.038455356 0.49134904 -0.5611921 -0.41550717 0.4488053 -0.48784262 0.45200527 0.11694704 -0.2959339 0.48553523 -0.13628957 0.19014366 0.45258284 -0.0067455904 0.23290624 -1.1525632 -0.21167304 0.16015625 0.13127415 0.55353117 0.28422678 0.5024969 0.4521562 -0.37690464 0.02423599 -0.31239045 0.55120003 -0.18068123 0.07684947 -0.80440605 0.2616254 0.6273492 -0.6225872 0.23269987 -1.1661876 -0.106318526 -0.30365932 -0.9863542 -0.20067027 0.31678858 -0.9650376 0.46039897 0.19263542 0.0890703 -0.59939873 -0.42303494 -0.24214092 0.18927678 -0.52033854 0.3779634 0.6758796 -0.73814577 0.28086892 0.039143708 0.431472 0.08882728 -0.620439 0.7438978 -0.2550402 -0.22410117 -0.45583782 0.19149055 0.11519695 -0.24012579 -0.36774707 0.59590626 0.2253892 -0.27686673 0.4529884 0.18907714 -1.0271536 -0.0015324056 0.27929932 0.51530576 0.6109844 -0.0128859645 0.22109273 0.51157546
class="o-header__mega-link" -0.65303844 -0.45678532 -0.46411055 -0.7729244 -0.5128146 0.24847388 0.24568851 -0.11518845 0.027111966 0.3056702 -0.57709134 -0.06700725 0.11598308 -0.106684476 0.112348 -0.111610815 0.4754544 -0.4847962 0.3663038 0.5283961 0.20338674 -0.15064748 -0.04308721 0.47223288 -0.5492572 -0.3832742 0.45562962 -0.47681075 0.4445774 0.1167868 -0.30490342 0.48055136 -0.15002064 0.18807071 0.46010697 -0.01429616 0.24307543 -1.1273249 -0.18818103 0.16540502 0.12851237 0.5239958 0.2774512 0.50105065 0.42221165 -0.38750058 0.026662387 -0.27328813 0.549268 -0.19494976 0.09225728 -0.7941195 0.26494214 0.61566067 -0.6125068 0.2343453 -1.1255192 -0.10085488 -0.28636622 -0.97838676 -0.20261334 0.3163338 -0.93075895 0.44965523 0.19966356 0.0843625 -0.57329965 -0.40679437 -0.2641633 0.16993083 -0.5066813 0.3911625 0.6398202 -0.73556083 0.27974328 0.035553325 0.437273 0.10009723 -0.5804852 0.7214998 -0.24992007 -0.19773553 -0.43126804 0.18072543 0.12307367 -0.23232394 -0.3559702 0.57592845 0.22226119 -0.26242468 0.44596645 0.1759654 -0.99633455 0.005019782 0.2764968 0.5076579 0.61520284 -0.023510857 0.19488363 0.49501765
class="o-header__drawer-menu-link -0.55231225 -0.1548083 -0.16691129 -0.76011443 -0.4277995 0.18343857 0.07438401 -0.27561942 0.32500854 0.3096752 -0.56393045 0.12139016 -0.06404796 -0.3959002 0.18525922 -0.50298667 0.09981238 -0.35428497 0.7054804 1.061115 0.14041324 -0.2039796 0.044987764 0.22100843 -0.45892432 -0.12845507 0.40136775 -0.7262162 0.45263138 0.29618832 -0.14115699 0.18550017 -0.44487575 0.31588563 0.33219105 -0.0074587567 0.089729376 -0.6894494 -0.49745542 0.4053718 0.008274477 0.31916165 0.37582016 0.82439226 0.4519565 -0.54480034 0.19701509 -0.5428972 0.3076859 -0.33149287 -0.026471287 -0.46361208 0.6452876 0.34354952 -0.7712546 0.26116738 -1.1884011 -0.40655428 -0.30532104 -1.1792344 -0.08444152 0.36694002 -0.93774885 0.521104 0.34736595 -0.08630505 -0.23809962 -0.13072768 -0.28956574 -0.3961163 -0.57346135 0.3923992 0.7004993 -0.518722 0.1625983 0.122960895 -0.0025527617 0.25926214 -0.172234 0.7495763 -0.03033865 -0.08806694 -0.1319076 0.11459393 0.7791815 -0.4498223 -0.1824065 0.30842674 0.24279384 -0.45401216 -0.0037762227 -0.065064244 -0.83884114 -0.57261753 0.33544657 0.7854477 0.70126814 0.31216094 0.096554734 -0.009031167
<button -0.23532791 0.073532 0.13980903 -0.07643599 -0.28142044 -0.22795795 0.44142848 0.3145771 -0.27835557 -0.62997895 0.34289593 -0.69074994 -0.3455889 0.35352597 -0.10809836 -0.03447997 0.25792325 0.66724724 -0.1288353 0.02580649 0.14774187 0.018071711 -0.15902604 -0.12355278 0.11599279 -0.3024767 -0.056253582 0.05835855 -0.219741 -0.1814314 -0.4068232 0.2952474 0.18206179 -0.433939 -0.00692823 0.19373862 0.093126446 -0.5326984 -0.20487231 0.010552534 0.38903224 -0.17069167 0.08010125 0.6613877 0.13145317 -0.41607216 0.04492932 0.2741159 0.5825593 0.6863815 -0.17721584 -0.55516374 0.3110008 0.05932904 0.11426772 0.45743665 -0.3411118 0.11254824 -0.05929023 -0.2206153 0.09500333 -0.3254958 -0.3457659 0.32960778 -0.12048071 0.5733834 -0.48229083 0.25987238 -0.105300404 0.4200458 -0.10410864 0.2246574 0.66146654 -0.8155043 0.7626795 0.32269448 0.44255725 -0.38435298 -0.33367527 0.31367457 -0.15775095 0.17978486 -0.7119395 -0.08165232 0.1607191 0.038267408 0.14558943 -0.1673419 -0.31651878 0.10662597 0.017757017 -0.20987435 -0.2707805 -0.11891796 0.51121175 0.26257977 -0.18246746 -0.019622438 0.37365016 0.021837002
<ul -0.07615589 0.1654215 0.14666371 -0.11871808 0.20747413 -0.0027962495 0.51277184 -0.12550513 -0.2254713 -0.3356525 0.2872285 -0.58386046 -0.09471242 -0.029525569 0.07557487 0.096171096 0.07346205 -0.06137117 0.18667863 -0.2741055 -0.25506684 0.12625642 0.21407855 -0.17959109 0.25903738 -0.08546085 -0.33032262 -0.009939166 0.15296808 -0.11970087 -0.20376377 0.081881106 -0.1102011 0.039153498 -0.23974067 -0.08271562 -0.17139076 -0.3790848 -0.19984038 -0.11981955 0.1230238 -0.31965482 0.1547751 0.32416382 0.10650539 0.06393347 -0.29430467 -0.5793238 -0.21354459 0.24417758 -0.13892353 -0.4253978 0.16690451 -0.11653471 0.18797354 -0.1457556 0.014531132 0.16452302 -0.3571835 -0.20456058 -0.23707843 -0.39526784 0.02222942 0.26711902 -0.14726429 0.6829489 -0.18721378 0.36049595 -0.040174976 0.06496888 -0.45624867 0.45716155 0.78493875 -0.37308145 0.12974328 0.15085821 -0.011355279 -0.5077912 -0.55098265 0.12894814 -0.021521138 -0.23862238 -0.43550268 0.42933932 0.6278139 0.21583948 0.24929056 -0.046123333 -0.14956988 0.14578211 -0.07037074 0.18975821 -0.24060057 -0.15570746 0.52779245 0.49939066 0.13122791 0.22040819 0.7074061 -0.19399172
class="o-header__drawer-menu-item"><a -0.5890614 -0.15140976 -0.214245 -0.775042 -0.4577473 0.14568652 0.04825517 -0.26789904 0.34213412 0.30053204 -0.6080749 0.15726304 -0.0771757 -0.38811767 0.21566847 -0.49592632 0.13728397 -0.3450155 0.68556035 1.1051707 0.14377423 -0.17151947 0.052247677 0.22626099 -0.4732292 -0.13520181 0.43298244 -0.77727085 0.45894086 0.33688283 -0.1349854 0.18239999 -0.43518853 0.29963815 0.31623906 0.05819465 0.054581642 -0.7050606 -0.49538228 0.38916093 0.034706425 0.3438943 0.40251768 0.80682635 0.44760573 -0.5495095 0.17367902 -0.5455226 0.32159528 -0.36687773 0.0024852701 -0.4773479 0.64941216 0.33551535 -0.79814094 0.2746414 -1.2149445 -0.44407144 -0.32499158 -1.2180293 -0.09386659 0.41639313 -0.97629493 0.53562313 0.38101035 -0.094593346 -0.2653553 -0.13562408 -0.29746926 -0.39639625 -0.5448539 0.3617613 0.6893491 -0.5025934 0.19575566 0.119524 0.0020658518 0.26691225 -0.15912344 0.76528835 -0.019436441 -0.07942312 -0.086158395 0.118308686 0.80219406 -0.46649748 -0.19176891 0.34151435 0.24542174 -0.4463645 0.028658072 -0.07035146 -0.8537639 -0.58789027 0.28307426 0.785521 0.6958899 0.25412625 0.11463093 0.034460127
<script 0.028720384 0.24753062 -0.34246373 -0.33948183 0.16741641 -0.2566568 -0.47319043 -0.15703247 0.115506575 -0.07957903 -0.040447462 -0.44035062 -0.057535175 0.037485905 0.46367964 -0.14397542 0.3890966 0.008974958 -0.26540574 0.2283227 0.0150313685 0.6255349 -0.26619023 -0.043600436 0.27268466 0.303128 -0.48856312 -0.55143297 -0.031556755 0.06555663 -0.41319406 -0.14832439 0.0021017727 -0.06305741 -0.8115057 0.35761595 -0.6617236 -0.4533141 -0.41987592 0.0005750198 0.2843548 0.23878977 0.6132433 0.31774622 0.08965942 -0.010952431 0.11326189 -0.78870887 -0.09582871 0.3560525 -0.1817861 -0.414281 0.13171226 0.044158768 -0.30665484 -0.28221282 -0.054944575 -0.4315626 -0.34381536 -0.5439879 0.31975207 0.18629694 -0.067405805 0.5039034 -0.14251122 0.5795351 -0.33680877 0.067154065 -0.10700901 -0.29878157 0.21523726 -0.040812865 0.5027999 -0.19917639 0.36139548 0.6526116 -0.3241413 -0.06963763 -0.4733019 0.42994836 -0.08406374 -0.037064765 -0.39903748 0.5487877 0.6027308 0.41717884 0.042042978 0.06601921 -0.34891924 -0.048961632 0.11701152 0.14862104 0.09251499 -0.5110189 0.03279587 0.40265143 -0.46508476 -0.14623125 0.18127939 0.20449215
- 0.26657784 0.17341809 -0.0014382179 -0.25370768 -0.1643292 -0.50927174 0.04162137 0.016803144 0.10917489 -0.30575448 0.27301133 -0.19951269 -0.49245992 -0.043771423 0.22883348 0.1396376 0.13433078 0.41094875 0.118281804 0.40626484 0.079632975 0.24929792 -0.35705423 0.33380175 0.13367599 0.27556428 -0.057203703 0.23368758 0.3306374 -0.15863755 -0.13983881 -0.03398283 0.08375156 0.058058094 -0.07564632 -0.20114104 0.04382435 -0.2178022 -0.009201452 -0.38175324 -0.28805506 0.33961546 0.2995853 0.18952999 -0.13899542 0.17570147 -0.3493895 0.3018187 0.16627342 0.13265951 -0.18375322 -0.3421824 0.0033029767 -0.16877013 -0.0057941373 0.24594414 -0.36254933 -0.48869163 -0.3075236 -0.56395096 -0.24670526 0.63635105 -0.49133494 -0.019172894 -0.1837046 0.35732362 -0.1198628 -0.12813598 0.10453473 -0.43917465 -0.21634117 -0.1933216 0.25653592 -0.2703971 0.029145107 0.5408966 0.098751746 -0.16939548 -0.1628803 0.19776312 0.09586083 0.18302026 -0.053058792 0.39543286 0.5111081 0.01869784 -0.09921709 -0.24870902 -0.246035 -0.046963584 -0.18542722 -0.040363222 0.1376499 -0.19162716 -0.21781829 0.067306206 -0.16549475 -0.11115688 -0.04556848 0.08797095
type="button" -0.21645465 0.17957409 0.117959425 -0.12969707 -0.18755119 -0.2382213 0.45688504 0.19455752 -0.2851704 -0.65077996 0.3361676 -0.74057794 -0.4181289 0.37345424 -0.101902805 -0.014425124 0.1907823 0.7791829 -0.19729796 0.052013688 0.07203613 0.076756924 -0.10131 -0.109852895 0.16811708 -0.21730034 -0.06423831 -0.07168625 -0.17912275 -0.15006202 -0.3822408 0.2011462 0.2760516 -0.4654505 -0.08414024 0.26478624 0.029151669 -0.4349739 -0.26568124 0.028942235 0.38247973 -0.25271222 0.30194953 0.5785264 0.0911377 -0.3926027 0.030346308 0.12526448 0.43118015 0.6830819 -0.24855709 -0.456364 0.22596039 0.1499266 0.07537315 0.35411388 -0.14210062 0.07194435 -0.012234408 -0.22200312 0.16527934 -0.30659524 -0.2662593 0.43195552 -0.120882004 0.45210955 -0.5371005 0.3579869 -0.0977001 0.33613336 -0.06075724 0.15445247 0.61921495 -0.6202083 0.7144218 0.25277844 0.23551941 -0.29258493 -0.23275347 0.34875324 -0.1211627 0.053419344 -0.6610603 -0.09403667 0.21034425 0.09655204 0.1495639 -0.078673705 -0.40824366 0.025970805 -0.11111107 -0.11968553 -0.19202083 -0.08821956 0.48884276 0.27375245 -0.18919212 -0.07657041 0.35904375 -0.0072792275
<link 0.07887284 0.252685 -0.2371585 -0.7453141 -0.0025480737 -0.055048097 -0.28849488 -0.47376353 -0.012556495 0.07852594 0.2305031 -0.3910225 -0.06539036 -0.07468618 0.21241154 -0.1331397 0.5953262 -0.04564821 -0.18916532 0.46476513 -0.11635743 0.36934683 -0.2544699 -0.02539982 0.16626781 0.414011 -0.6092546 -0.3641343 0.056213498 -0.024128107 -0.46817064 -0.101150155 -0.19322968 0.24776085 -0.7086126 -0.1326858 -0.49402964 -0.42787012 -0.6203867 0.21426435 0.09956216 0.3835732 0.46684727 0.582291 0.3672084 -0.12536335 0.4687662 -0.61915374 -0.21110885 0.4063987 -0.2602309 -0.090727 0.21237107 -0.0076707406 -0.46016303 -0.4113861 -0.51387274 -0.4572819 -0.19691458 -0.71390176 0.40201995 0.048951577 -0.25981793 0.56660885 -0.06915327 0.47209668 -0.22060944 -0.1726754 -0.14555284 -0.5981626 0.040375892 -0.033116076 0.41869017 -0.42962363 0.16472007 0.8805699 -0.5884223 0.0053477148 -0.49262425 0.65914786 0.10399522 0.095514074 -0.50397176 0.24086942 0.7489232 0.37039807 -0.028079312 -0.051782224 -0.47932988 -0.25055942 -0.031117816 -0.17276596 0.027451502 -0.64808804 0.14941902 0.19628632 -0.3267171 0.3848808 0.18361405 0.015758319
0; -0.5774673 0.34947756 -0.17314716 -0.08691686 -0.23192891 0.042214844 -0.1605972 0.05311565 0.08507283 0.14816323 -0.29784513 0.10893498 0.5443697 0.119893104 0.05049648 -0.6305419 0.45155585 0.124207236 0.49323425 0.5753281 0.27626842 -0.17107518 0.09487586 -0.10530244 -0.4068375 0.28468364 0.031230675 -0.45031336 -0.013238362 0.5077639 -0.047512326 0.25447783 -0.37837684 -0.015312141 -0.15367357 0.70227844 0.44072345 -0.50606674 -0.17939974 0.06271951 0.09527085 -0.0068460647 0.20296413 0.4516269 -0.2919638 -0.4060356 -0.13511026 -0.20582376 0.3675533 -0.3896904 -0.19029748 -0.2854307 0.55038065 -0.0068434295 -0.5689052 -0.008335309 -0.25826234 -0.034580898 -0.18319373 -0.8349332 0.26510227 0.13869435 -0.31371891 0.17591915 0.065924 -0.032739908 -0.3404185 0.08278161 -0.61093634 -0.14847182 -0.10370025 0.17248347 0.19831207 0.055738345 0.121251926 0.14997429 -0.42698237 0.5877555 -0.13746989 0.49204615 -0.081104614 0.036818642 0.13869913 0.44669506 0.47272998 -0.16602707 0.27869567 0.036240157 0.3142851 -0.03879624 -0.1366342 0.19231671 -0.7587434 -0.31810334 -0.13853446 0.5672154 0.40676153 -0.3858217 0.2548272 0.011614164
<meta 0.07751468 0.14643994 -0.3963665 -0.80402714 -0.042988054 0.02079052 -0.22422561 -0.5134313 -0.16964091 0.052412923 0.3064199 -0.37863004 -0.25419468 -0.012152656 0.022458673 -0.244558 0.56238675 -0.07108341 -0.12442712 0.6880956 -0.030425025 0.42199764 -0.14610499 0.047822684 0.047376085 0.40290922 -0.5325689 -0.46078986 0.15316725 -0.07678252 -0.4875211 -0.08573934 -0.10780105 0.27680707 -0.51211333 -0.041600727 -0.47585267 -0.3895535 -0.66815645 0.12797338 0.05893198 0.38533202 0.5525778 0.57134557 0.3225662 -0.19298021 0.5532457 -0.5766087 -0.17441128 0.3430411 -0.43089765 -0.026719747 0.2913031 0.26521412 -0.4359823 -0.4353281 -0.5920405 -0.55482775 -0.17028075 -0.8449014 0.40785253 0.039310016 -0.26278117 0.6299222 -0.0734869 0.41080055 -0.3231764 -0.31753248 -0.24450965 -0.46699646 -0.033219922 -0.0713048 0.36921498 -0.34720302 0.23196556 0.8366875 -0.5496953 0.18871583 -0.4704207 0.6163608 0.01242724 0.064976476 -0.52632886 0.11278949 0.73171693 0.31630877 -0.037037574 -0.016805762 -0.5322835 -0.31014356 -0.14749262 -0.20558238 -0.07104911 -0.6203619 0.020963993 0.18298604 -0.39177805 0.42124462 0.059162393 0.017924575
o-header__drawer-menu-link--unselected -0.6069984 -0.12518215 -0.21063818 -0.86386013 -0.47753137 0.18861623 0.038909916 -0.33176 0.35748488 0.33728454 -0.59581554 0.16290094 -0.06546072 -0.38390952 0.15346082 -0.5756926 0.1264895 -0.33693296 0.76574427 1.2377311 0.15718567 -0.21916614 0.062308572 0.25506926 -0.48671564 -0.069187716 0.41623482 -0.77701277 0.4938647 0.39144775 -0.11537873 0.21674277 -0.50433534 0.348435 0.3208533 0.038269494 0.13290149 -0.7587498 -0.5251212 0.41719058 -0.001217492 0.32691374 0.46576077 0.85737497 0.43121883 -0.5903571 0.20311232 -0.5649555 0.31928885 -0.39282516 -0.07545002 -0.4450981 0.6815546 0.35351616 -0.849283 0.2604847 -1.2412075 -0.4348934 -0.2905691 -1.3410963 -0.030805293 0.4091829 -1.0201347 0.5521192 0.33574563 -0.17378712 -0.2682212 -0.18231322 -0.34926948 -0.46918046 -0.5965023 0.3867621 0.68645215 -0.48947385 0.14170714 0.13388275 -0.12420705 0.37600094 -0.145908 0.8719548 0.020957852 -0.08259864 -0.09089577 0.13087271 0.8704955 -0.46555218 -0.1613885 0.3335217 0.21737541 -0.53707963 -0.049746484 -0.08766327 -0.9274012 -0.6505299 0.2817954 0.8176567 0.7429549 0.27731058 0.0665871 -0.043535274
var -0.64783484 0.6298431 -0.29406 -0.011110667 -0.025415884 -0.53412724 -0.22210006 -0.3346717 0.32710275 -0.057004444 -0.3546999 -0.38513324 0.18493842 -0.12727745 0.6591169 -0.16276687 0.5911822 0.07925691 -0.16412964 0.1465976 0.009319766 0.6068965 -0.20115659 -0.15937226 0.02902629 0.0038694646 -0.18543771 -0.48218372 -0.16330414 0.15090846 -0.015125543 0.042741057 -0.025170406 -0.10087773 -0.65441346 0.73609644 -0.48107955 -0.53045446 -0.39033684 -0.0030283316 0.42394736 0.008793789 0.64721566 0.26634642 -0.3420091 -0.27048913 -0.24597533 -0.6378539 0.16117252 0.05628074 0.21493593 -0.46709427 0.24932826 -0.21024011 -0.40027317 -0.020816833 0.2612179 -0.4111024 -0.65406954 -0.3499615 0.267966 0.3049506 -0.23985966 0.306031 0.08460173 0.364306 -0.44252118 0.41464382 -0.1324352 -0.18312714 0.12768503 -0.15119052 0.537593 0.014588617 0.653359 0.61051285 -0.1149854 -0.08426603 -0.33639586 0.11379096 -0.016109858 -0.008884698 -0.059946243 0.6582929 0.5153632 0.06895872 0.07575002 0.47617838 -0.1256177 0.08632731 0.32795006 0.25293666 -0.21539642 -0.3599361 -0.00086289976 0.38886997 -0.22586387 -0.58077717 0.6591844 0.21019754
/> 0.38551065 0.011804288 -0.24545547 -0.6186737 0.070367046 -0.23609412 -0.27015263 -0.013490986 -0.01980969 -0.12488824 0.23233165 -0.36742446 -0.61563355 0.10207927 0.17875654 -0.0758902 0.3422211 0.13036019 -0.12802052 0.29045707 -0.11511592 0.48579526 -0.11233854 0.08573906 0.31962606 0.6136879 -0.35050797 -0.43148857 0.17353588 -0.168641 -0.5918862 -0.20631252 0.15242822 0.030962657 -0.4758254 0.130606 -0.45227203 -0.3058593 -0.3009955 -0.07016067 0.21683398 0.19462888 0.47545183 0.32934374 0.21477254 0.03186084 0.13838749 -0.5298577 -0.15401682 0.44344434 -0.40718675 -0.34121862 0.15643518 0.5034872 -0.3109977 -0.1010831 -0.38209045 -0.4837961 -0.25777742 -0.61584854 0.24590178 0.22100097 -0.1407374 0.69789165 -0.14686897 0.5668823 -0.35521394 -0.16474457 -0.049032282 -0.32350454 -0.02870208 0.21125023 0.3895767 -0.49447975 0.26222447 0.6897526 -0.25504243 -0.004145688 -0.30106226 0.40280452 -0.07295384 -0.03560073 -0.50979316 0.18483332 0.46791905 0.36686203 -0.019270344 -0.13605738 -0.48899487 -0.288707 -0.10745475 -0.023315962 0.1177318 -0.43142945 0.012574443 0.34709632 -0.34183395 0.14610697 -0.28883255 0.09680176
a -0.29866076 0.03642133 -0.14687362 -0.24739441 -0.08120885 -0.2530292 0.05401121 0.19806093 0.15334035 -0.086963415 -0.21604094 -0.18128528 -0.032120116 -0.15077367 0.38956788 0.03992643 0.3338309 -0.252843 0.01909037 -0.21247879 0.018051589 0.1138253 -0.020935643 -0.051422533 -0.1898851 -0.2486911 0.0936637 -0.23780665 0.119885065 -0.00353067 -0.28658924 0.052450813 0.040921353 -0.08086706 0.004405343 0.045810703 -0.04471323 -0.4018329 -0.20211399 0.010657088 0.17309403 0.23208378 -0.014690037 0.26934832 0.21635012 -0.21560057 -0.14758566 -0.24061054 0.2236778 0.17678146 0.24128076 -0.64103514 0.23647307 0.16353649 -0.12734924 0.12705751 -0.39384854 -0.16181053 -0.3816103 -0.22743201 -0.1891705 0.084323056 -0.40294096 0.25502554 0.14698158 0.5712926 -0.2345672 0.12355165 0.03373485 0.15762794 -0.16492127 0.22663133 0.71030176 -0.553115 0.34612304 0.15580417 0.5260911 -0.43665382 -0.4761852 0.02052923 -0.25106844 0.045779087 -0.30296835 0.32717875 0.22614245 -0.021229004 -0.13866454 0.27716163 0.08757988 0.16472134 0.46782523 0.08780405 -0.24638005 -0.078739755 0.34387365 0.43159264 0.10627965 -0.048858386 0.33313936 0.38219178
--><!-- -0.43477422 0.85957265 0.022264695 -0.6307337 0.21320954 -0.36648864 -0.062357318 -0.2015374 -0.029331295 -0.41977912 -0.1297672 -0.45072627 -0.20135373 -0.49967873 -0.029400127 -0.45282453 0.17455275 -0.30459064 0.34458414 0.18457435 -0.18580337 0.29534817 0.019385224 0.09895845 -0.27853742 -0.010053411 -0.027596107 -0.30740595 0.5171253 0.66438764 0.0876657 -0.034222446 -0.070420004 0.12544774 -0.4745754 0.40108827 -0.42001268 -0.4782666 -0.2672327 -0.50162643 0.22078063 -0.37688193 0.87145174 0.5395693 0.00054087356 0.04483786 -0.35659435 -0.91176945 -0.26356494 0.021566369 -0.39770263 -0.20097004 0.16537128 0.00552154 -0.47231746 -0.2330027 -0.13614187 -0.4039276 -0.112104766 -0.90235233 0.45897335 0.25891197 -0.5641738 0.13554704 -0.3081133 -0.17850691 0.10852441 0.096751615 -0.19579579 -0.41995567 -0.3573838 0.09237449 0.63054615 0.30677685 0.4602241 0.47855735 -0.7755052 0.14721514 -0.6755849 0.5437955 0.51585984 -0.26746288 0.057159204 0.62889564 0.74122393 -0.19205834 0.2618299 0.3366227 -0.51963276 -0.3385808 -0.37477985 0.2977632 -0.5546943 -0.11236409 0.0218947 0.4451263 0.0172695 -0.21980803 0.043502122 -0.04424524
display: -0.38027722 0.29778153 -0.13583845 -0.18850854 -0.08698636 0.052261133 -0.23996052 0.11203565 0.09880786 0.1852561 -0.2194365 0.15354253 0.55226964 0.18818793 0.044743907 -0.6126294 0.33306473 0.08629169 0.48400882 0.58802027 0.26723057 -0.06400957 0.02741625 -0.03710966 -0.28799802 0.28439093 -0.030181665 -0.36556125 -0.07561425 0.44918624 -0.082546666 0.13435476 -0.36275515 -0.03184499 -0.1818596 0.66159964 0.43110272 -0.4397585 -0.18563996 0.07112799 0.030609101 0.063740194 0.15527469 0.43893737 -0.22636797 -0.2813456 -0.090764366 -0.21111739 0.2892467 -0.2931776 -0.33025837 -0.24780579 0.48686504 0.028460573 -0.48413107 -0.07829683 -0.22290006 -0.059463885 -0.10835388 -0.8299037 0.2952456 0.106990166 -0.27231887 0.22940673 0.0039423467 0.04928454 -0.28216153 -0.040736344 -0.5428856 -0.17548323 -0.09056949 0.22279203 0.1889042 -0.019310351 0.054525476 0.12558618 -0.46050173 0.5114721 -0.19307081 0.5633486 -0.08316431 0.047574382 -0.0025662635 0.4595668 0.53916055 -0.034603465 0.2347699 -0.07187261 0.24631728 -0.10947101 -0.24277416 0.15129505 -0.7139441 -0.46093437 -0.10537498 0.52683085 0.31034535 -0.27573478 0.13936426 -0.14618951
is -0.43152833 -0.23583786 -0.18304896 -0.42863306 -0.17671527 -0.1306297 -0.015022351 0.045557585 0.061097257 0.12868425 -0.38071796 -0.26221487 -0.13693848 -0.3142921 0.47576633 0.0036396543 0.26313385 -0.26232907 0.050641365 0.1152828 0.06700005 0.2754881 -0.15218808 0.17811032 -0.1272316 -0.237827 0.13260889 -0.4971991 0.12536679 -0.20442799 -0.37214977 0.03189252 0.13295513 0.16726182 -0.07147153 0.14332436 -0.35663778 -0.56378657 -0.15301085 0.06510329 0.4721398 0.37079763 0.03465221 0.41621003 0.41495082 -0.089837514 0.051818497 -0.5844665 0.26864502 0.12947929 0.23264353 -0.74702346 0.21249518 0.3781424 -0.36017585 0.25536233 -0.71389246 -0.3095677 -0.44900706 -0.54307103 -0.20269637 0.47130236 -0.53784406 0.32378277 0.20598508 0.59430885 -0.3127022 0.019838637 -0.0024236918 0.12462168 -0.2961818 0.38133585 0.7710942 -0.59009415 0.46745962 0.46176252 0.47277054 -0.37301615 -0.58294576 0.26428297 -0.3081221 -0.0808749 -0.37231454 0.36552042 0.19454664 -0.086295426 -0.30807462 0.29771948 0.068781905 -0.060897887 0.51323545 0.12675361 -0.26102287 -0.055860583 0.3965099 0.5306287 0.19410203 0.18779701 0.19057775 0.4078399
role="presentation" -0.40106374 0.25407562 0.047601167 -0.52957463 0.038083162 0.004945625 0.6111557 -0.11815169 -0.29039 -0.49405134 0.37733164 -0.72659415 -0.61615604 0.2101616 -0.43545893 0.047731344 -0.09197542 0.1893328 0.120648794 0.13290939 -0.16103335 -0.04733829 0.21866179 -0.052789744 0.44955844 -0.42096114 -0.1390711 -0.15172987 0.06314054 -0.060071554 -0.13015848 0.24681419 0.32651195 -0.120531656 -0.22286046 -0.075216174 -0.26725715 -0.5030569 -0.13164765 -0.11007734 0.13089713 -0.5510973 0.55718076 0.55252 -0.092823856 -0.21698806 0.003906874 -0.5512307 -0.016049603 0.599808 -0.31720215 -0.2907261 -0.15557986 0.14423513 0.26643476 -0.13110377 0.4199747 0.2975328 -0.16490778 -0.3578543 0.26800466 -0.339124 -0.08081324 0.016812492 -0.4928089 0.37310913 -0.30177835 0.23541975 -0.04725452 0.084842965 -0.2902835 0.16417012 0.40541127 -0.26150241 0.663053 0.09418805 -0.18739435 -0.13101055 -0.5007863 0.26937968 0.26596716 -0.37579733 -0.5718535 -0.009635883 0.3474702 0.11183606 0.4338821 0.015128741 -0.6143692 -0.17882518 -0.19167148 -0.09515844 -0.37571323 0.16561098 0.52470183 0.22000335 -0.1634391 0.007843075 0.47265077 -0.24701242
с -0.08567042 0.6305063 0.5323317 0.07715469 0.23621778 -0.22726294 0.15491486 0.24246918 -0.40626594 -0.298518 0.2722974 -0.5796506 0.25527188 0.13251118 0.06298346 -0.37535015 0.019747462 0.053166408 0.40589592 -0.11931242 -0.06436138 -0.25630096 -0.10992457 -0.041914195 0.039850622 0.31086135 -0.3768179 0.5443194 0.016949482 0.08493176 -0.03795731 0.04223186 -0.490758 0.11712596 -0.28621995 0.1646454 0.40116856 -0.4144986 -0.10981179 -0.2860631 -0.17885707 -0.47308823 -0.0996987 0.6131115 0.004262077 -0.09054473 -0.4193359 -0.15214825 -0.11622578 0.23609217 -0.5123376 -0.16893044 0.37674493 -0.49507833 0.096161716 0.018826546 -0.2392508 0.24753912 -0.070119664 -0.5463251 -0.06333462 -0.4419929 -0.079481214 -0.04389452 -0.3981721 0.6255095 0.31905493 0.2503094 -0.14399439 0.11852222 -0.5696726 0.5018548 0.553181 -0.18397094 0.013225927 0.62766147 -0.28113443 -0.142287 -0.5717039 0.15840718 0.16731027 -0.04310988 -0.2952519 0.6023675 0.6256406 0.24496503 0.46451402 -0.41704953 0.011926371 0.09282254 -0.49679995 -0.017643115 -0.37889385 -0.3239503 0.43361053 0.69104576 0.11967807 0.27590704 0.44454375 -0.4579765
o-header__drawer-menu-link--child" -0.628801 -0.1333767 -0.23486227 -0.81483084 -0.48575404 0.17642343 0.035969757 -0.28419495 0.34002528 0.33585 -0.6082663 0.15718508 -0.0372115 -0.3567894 0.18513083 -0.55038613 0.17794977 -0.3428784 0.71114194 1.1892276 0.1680422 -0.19485542 0.065976635 0.25621367 -0.5184472 -0.07716333 0.4069058 -0.7915582 0.4949805 0.38994646 -0.13755117 0.2388016 -0.46991152 0.32342362 0.31583595 0.08552796 0.13326688 -0.8001547 -0.5114804 0.37898624 0.02275259 0.32842743 0.46150547 0.82143575 0.412394 -0.56954944 0.17523539 -0.5529397 0.3483354 -0.40026802 -0.04941829 -0.48799667 0.65863806 0.35483566 -0.8659452 0.23999275 -1.2147467 -0.43478906 -0.30126405 -1.3098917 -0.03489276 0.42901808 -0.9940136 0.5367215 0.3492866 -0.14763205 -0.2812807 -0.17373751 -0.364168 -0.42986077 -0.5663669 0.35954487 0.6706967 -0.4800138 0.14510989 0.150128 -0.07569644 0.3684688 -0.1739899 0.8471026 0.0036259494 -0.07147484 -0.08751562 0.14340772 0.8107702 -0.45634583 -0.16132236 0.35876802 0.22782731 -0.48791695 0.0018079004 -0.05765353 -0.9558844 -0.6086428 0.26079333 0.79965043 0.72934884 0.22169109 0.08664047 0.012328876
</button> -0.27843207 0.056452375 -0.038758025 -0.12820075 -0.33112398 -0.27823496 0.39404804 0.4008172 -0.2533332 -0.6033252 0.29832894 -0.54029274 -0.61618114 0.34874862 -0.047232736 -0.04386372 0.30598012 0.36487794 -0.16333431 0.05298599 0.05383617 0.03257512 -0.1735374 0.027813138 0.13927741 -0.25372958 -0.0061439 0.04027035 -0.18799533 -0.15770821 -0.26302204 0.29759806 0.25119013 -0.42485416 -0.049883526 0.1608352 0.048366778 -0.5896156 -0.07545399 -0.16632232 0.31739566 -0.12083949 0.031201111 0.58552635 -0.0059557185 -0.40432212 0.08629923 0.16737138 0.64499944 0.70640415 -0.17297207 -0.6532831 0.23552401 0.085312 0.17431809 0.35112387 -0.20191032 0.008956382 -0.17768458 -0.28002593 0.13121788 -0.18342549 -0.26894543 0.19496854 -0.3269588 0.69838107 -0.40178093 0.19653554 -0.12778051 0.3758266 -0.08307116 0.25204095 0.60789704 -0.74759877 0.81779754 0.46019888 0.4473397 -0.30749643 -0.426064 0.14503567 -0.07326643 0.14150703 -0.64230984 0.09983695 0.08272303 0.09093047 0.26417258 -0.05027831 -0.47163057 0.12597021 0.17623152 -0.22825946 -0.18854074 -0.065356165 0.36328453 0.26586923 -0.25324407 -0.14931013 0.33236596 0.110936455
type="hidden" 0.041669376 0.20569646 0.14223486 -0.20712845 0.37774795 -0.30545428 -0.31800285 0.23369043 0.077953786 -0.45486668 -0.16791646 -0.25485572 -0.5494433 0.17116708 0.6030282 0.05872895 -0.07713991 0.20107593 0.07282554 0.027455 -0.15241355 0.49875298 0.15204239 0.11324435 0.33140025 0.6071207 0.08247027 -0.44356668 0.38533014 0.17311676 -0.5570356 -0.34575918 0.15254939 -0.2903399 -0.25881192 0.67577165 -0.15332401 -0.2393638 -0.051151805 -0.2637473 0.32090425 -0.2973288 0.65087724 0.2506648 -0.04750421 -0.07186507 -0.43380406 -0.73338974 -0.053912815 0.11121032 -0.18590984 -0.6128401 0.20621511 0.45195773 -0.35660118 0.04832443 0.025208376 -0.25805712 -0.33920833 -0.57036436 0.036646504 0.5068567 -0.08356672 0.86064947 -0.06082689 0.31349507 -0.26612288 0.4686047 0.12846598 -0.17433234 -0.1139214 0.3396134 0.532009 -0.07184245 0.055576418 0.16703872 -0.08371318 0.03610699 0.1188677 0.32189435 0.036275405 -0.33301467 -0.09903189 0.53297585 0.3294438 0.34159806 -0.13338368 0.10662556 -0.12898913 -0.09399601 -0.06407657 0.49073502 -0.15692382 -0.27511057 -0.057106543 0.7040355 0.121791534 -0.44888046 -0.1054489 0.28306344
" 0.123694174 0.18323721 -0.095869206 0.004914592 -0.21266939 -0.44418278 0.13589214 0.24691139 -0.034845408 -0.2165905 0.095450856 -0.2822786 -0.1912455 0.076411806 0.16289522 0.072095886 0.24715234 0.32374498 -0.07292583 0.21302395 0.17888018 0.0909638 -0.29531357 0.22105148 0.16439635 0.07890731 -0.13535915 0.13491106 0.22098795 -0.12256069 -0.014752761 0.1376401 0.12500948 -0.10038231 -0.04282243 -0.038696088 0.076973185 -0.28461793 0.127007 -0.35242215 -0.21180683 0.10917549 0.2027327 0.22027771 -0.20853725 0.074247055 -0.3294684 0.44971728 0.121706314 0.09047344 -0.076017596 -0.55018604 -0.010771758 -0.2267914 0.0659745 0.32947513 -0.2730193 -0.34560654 -0.2247392 -0.45584795 -0.15537773 0.38965344 -0.5031966 -0.05742414 -0.22033328 0.40332282 -0.14454909 0.10568881 0.05999196 -0.08337529 -0.11620268 -0.17620976 0.2857137 -0.46068317 0.23707542 0.35827598 0.29111108 -0.13738593 -0.15345268 0.071236745 -0.008242215 0.27720138 -0.09278995 0.3805208 0.2985731 0.036957208 0.11268918 -0.1770926 -0.1939259 0.0003958663 -0.103897184 -0.16444692 -0.00046156062 -0.07402887 0.040607315 0.08934663 -0.2680202 -0.19193357 0.0011500899 0.0630542
> -0.057316665 0.19191918 0.35654193 0.20167267 0.22729813 -0.49793026 0.20220156 0.17331499 0.10761787 -0.5183115 0.05540573 -0.14150853 -0.33434653 0.33282816 0.46097702 -0.22592413 0.09057616 0.5083268 -0.2564606 0.33575273 -0.26605535 0.08886566 0.124036275 -0.2340252 0.17340088 0.22077897 0.06798348 0.13293758 0.010647416 0.1463366 -0.068708554 -0.29609522 0.26467443 -0.37068638 -0.061441578 0.1391987 0.24619794 -0.05854093 0.002227783 -0.33989495 -0.15826398 0.07657099 0.22983117 0.42769992 -0.1787647 -0.026934797 -0.41483486 0.16247207 0.28028515 0.16508228 -0.25608045 -0.6268986 0.20050046 0.062122706 -0.1417479 0.17407234 0.17616531 -0.3332548 -0.06135032 0.04353244 -0.06921219 0.40847117 -0.3111639 0.08108764 -0.30736524 0.32065046 -0.3369082 0.33131635 -0.12215035 -0.23646134 -0.27300945 0.22763953 0.6437568 -0.003938847 0.24013683 0.15073507 0.36905065 -0.07763671 -0.03832986 -0.12268775 -0.008770561 0.10014254 0.1246694 0.30428904 0.23590982 0.11242838 -0.029064333 -0.17122109 -0.16550156 -0.2088107 -0.30572534 0.15955208 0.23199858 -0.07264798 -0.09093588 0.5331686 -0.051116396 -0.16892794 0.17240945 0.04090612
<option -0.5335534 -0.4458997 0.37002614 -0.23390695 -0.34065896 -0.036710847 0.27754313 0.18192658 0.026361834 -0.0060774363 -0.40601957 -0.26811156 -0.36508116 -0.28780854 0.5275566 -0.17430113 -0.119266585 0.13422483 0.33328277 0.39590624 -0.11904949 0.18529007 -0.19199033 0.3956375 -0.02404844 -0.11295143 0.5813889 -0.34633425 0.12823999 -0.42576522 -0.4499724 -0.03741065 0.30928615 0.4530721 0.14216687 0.2756789 -0.23959884 -0.5875007 0.0556634 0.023784306 0.71300507 0.23111919 -0.2552609 0.67539024 0.37817812 -0.010259687 0.09440387 -0.6539377 0.59232396 -0.081119314 0.08063986 -1.0282605 0.30154496 0.47860712 -0.4932952 0.5961198 -0.91457164 -0.36608848 -0.48693275 -0.57827556 -0.44727975 0.8794 -0.5320396 0.21962267 0.15969148 0.6441569 -0.2095733 0.021523254 -0.16578218 0.021751719 -0.6927609 1.0134866 0.9088052 -0.58889115 0.6406836 0.7130012 0.7187772 -0.3806124 -0.53823185 0.20706026 -0.16332294 -0.12255163 -0.10754707 0.22303648 0.07628491 -0.3174054 -0.33222938 0.20234486 0.2619161 -0.26723737 0.22048113 0.22554152 -0.24909414 0.024855964 0.52965003 0.7962214 0.51585615 0.41885778 0.0025966146 0.2781801
&amp; -0.43061563 -0.16980268 -0.3200773 -0.68702275 -0.17649442 0.1684353 0.105610885 -0.21060291 0.21793015 0.17755818 -0.39903495 -0.027203152 0.021074697 -0.36213514 0.15342101 -0.19390084 0.19122821 -0.4988151 0.41854873 0.4359672 0.0034811685 0.019839091 0.09082192 0.14881876 -0.4492347 -0.26335207 0.27398333 -0.6183997 0.4951594 0.24913879 -0.2334254 0.20109105 -0.20990318 0.28832233 0.15819904 -0.1340449 -0.11623167 -0.56020194 -0.3654784 0.1683059 0.15693566 0.32913107 0.39239308 0.45816183 0.4135494 -0.23470002 0.07988175 -0.69588536 0.15095933 -0.17756017 0.10418477 -0.5473269 0.37869516 0.36693856 -0.4679626 0.013913728 -0.77727437 -0.21146423 -0.2320968 -0.69942975 -0.026522905 0.17199935 -0.7397771 0.47996405 0.21188605 0.08247916 -0.19705877 -0.2835986 -0.16748793 -0.21254256 -0.41179284 0.33222905 0.72681147 -0.47906163 0.13249855 0.037097663 0.15286666 -0.08802412 -0.4882117 0.4914086 -0.119516306 -0.10209461 -0.24452393 0.0794673 0.4582539 -0.28643405 -0.27012268 0.37987936 0.11777007 -0.24338718 0.24042432 0.12620157 -0.6696887 -0.2410037 0.26392868 0.48997965 0.4965594 0.25744107 0.22608417 0.242889
на -0.10820412 0.6072423 0.58473283 0.047235698 0.44485512 -0.15419425 0.06915587 0.2230575 -0.33091965 -0.30903578 0.17311421 -0.52029175 0.32323822 0.030789034 0.1772395 -0.45464098 -0.014760393 0.018656718 0.34424952 -0.12832056 -0.1667873 -0.1303968 -0.18455766 -0.19906613 -0.014097418 0.16812907 -0.3120569 0.44699994 -0.037400637 0.21187164 -0.09483265 -0.15803596 -0.49240288 0.051498566 -0.3080088 0.17884076 0.25068498 -0.29430014 -0.23025997 -0.30375 -0.2190675 -0.33493617 -0.1182734 0.83661765 0.18232536 -0.11620337 -0.3774193 -0.29998678 -0.04309465 0.29953247 -0.48379207 -0.17758346 0.45225102 -0.44386226 0.018750021 -0.0705018 -0.16924454 0.18803266 0.030725267 -0.36697224 0.061105188 -0.44272175 -0.13590704 -0.023950798 -0.40883404 0.675658 0.3123609 0.2741452 -0.1904331 0.0130449375 -0.5138276 0.5477128 0.67859745 -0.18116519 0.08527553 0.6100415 -0.18040697 -0.19876507 -0.6937 0.048838966 0.0006706437 0.037746303 -0.32036743 0.53556895 0.645417 0.20469868 0.34397072 -0.40831554 0.028611934 0.049813773 -0.54977345 0.03176695 -0.25083664 -0.35150757 0.52705014 0.72745836 0.20269695 0.35243434 0.5573774 -0.40355724
rel="alternate" -0.01626381 0.27107114 -0.03725257 -1.0441792 -0.08411538 0.11010226 -0.1422553 -0.619157 -0.13042066 -0.15222627 0.47176954 -0.46802384 -0.41666067 -0.08218851 0.1378178 -0.122761786 0.49551824 -0.092161566 -0.05595807 0.8943441 -0.26409796 0.085526586 -0.34371617 0.26831976 0.14683402 0.35695702 -0.33553675 -0.08518766 0.4316223 -0.14939046 -0.6444986 -0.13061775 -0.38755316 0.4753167 -0.4221252 -0.51402545 -0.2602151 -0.5189641 -0.48103058 0.24549648 -0.028234782 0.39030308 0.5512975 0.8491124 0.47402465 -0.29749477 0.51607823 -0.45545924 -0.14995386 0.49640942 -0.48425803 -0.17871305 0.36513948 1.821858e-06 -0.51140386 -0.3571118 -0.8338083 -0.4422696 -0.051516343 -1.0270536 0.28721678 0.07861674 -0.48464212 0.5489036 -0.14076483 0.33979446 -0.14295913 -0.25853437 -0.061832972 -0.86354107 -0.14690149 0.20723836 0.45554695 -0.5712741 0.12363293 0.98506695 -0.4942077 0.02055242 -0.44780922 0.8567462 0.33117914 0.038126692 -0.6029072 0.13952889 0.8953756 0.27842486 -0.24305588 -0.23312779 -0.7119509 -0.3611066 -0.15483162 -0.27533826 -0.1979334 -0.71853775 0.2315788 0.24203293 -0.10444806 0.5629212 0.16526915 0.034942284
background: -0.5179232 0.47654864 0.0132499 -0.1337554 -0.16692427 -0.051282536 -0.105277576 0.045487672 0.05965029 0.048694238 -0.23071875 0.1197709 0.5507878 0.03440521 0.16006067 -0.6760244 0.50142956 0.044080954 0.28442755 0.59979635 0.1606124 -0.2844331 0.21940283 -0.069845855 -0.51092094 0.37925968 0.0007713353 -0.253195 0.14116299 0.64757526 -0.089856766 0.078223914 -0.38994035 -0.047210578 -0.15477063 0.539922 0.5522566 -0.55573976 -0.28796953 0.0058915257 -0.051399942 -0.07622458 0.29773077 0.43023652 -0.12700383 -0.44964457 -0.20829745 -0.17273729 0.25849333 -0.45768154 -0.2327831 -0.22585294 0.50016516 -0.08189922 -0.65762657 -0.09658135 -0.352825 -0.08478712 -0.1434975 -0.8844172 0.17984128 0.12841518 -0.3504682 0.22019999 0.091771685 -0.10739558 -0.17626613 0.16109861 -0.5934521 -0.32092598 -0.25734845 0.1722525 0.36621666 0.085797496 0.05113464 0.16237693 -0.49428084 0.58109194 -0.13897862 0.47924224 0.014336895 0.030615738 0.29193726 0.54854447 0.4821098 -0.13851167 0.2036454 0.06964403 0.29032242 -0.09756549 -0.10534435 0.13642956 -0.61359835 -0.37560377 -0.031141784 0.55323553 0.46016547 -0.22854085 0.21710864 -0.013228431
биография, -0.020530168 0.60378826 0.35094115 0.10595002 -0.18581462 -0.5276635 0.09849011 0.68786395 -0.3555247 -0.2923318 0.24374123 -0.4826016 -0.10986535 0.2368371 -0.012278221 -0.37685043 0.082096346 0.10338154 0.56815994 0.13608524 0.1523239 -0.18430664 -0.31184793 0.5259771 -0.011968343 0.645113 -0.24844144 0.6109033 0.14904875 0.20509951 0.11305308 0.19954266 -0.2431876 0.028791312 -0.15893048 0.4176339 0.8969309 -0.6316613 0.30238456 -0.588214 -0.24769881 -0.59523463 -0.037655972 0.38658488 -0.3753535 0.016820973 -0.65698755 0.38063508 0.12828761 0.034006618 -0.6361721 -0.2938187 0.14759345 -0.42198446 0.08374734 0.20507674 -0.34645125 0.04099258 -0.28506187 -0.9831033 -0.1261416 0.13790089 -0.20312707 -0.2691959 -0.53767914 0.46053734 0.2558897 0.14126702 -0.2230472 0.071037166 -0.4340439 0.37966537 0.0680674 -0.25459132 0.14442763 0.6680055 -0.372673 0.2983448 -0.31948742 0.24364112 0.33630544 0.052608415 -0.098877944 0.8308425 0.49620488 0.2022611 0.6130757 -0.24923304 0.024252333 0.029874621 -0.44282305 -0.15219273 -0.43094745 -0.18277168 0.22075997 0.46986413 0.05657168 -0.5020387 -0.029226694 -0.34581903
itemprop="image"> -0.00030238472 0.57144916 0.3157591 0.12605955 -0.09970901 -0.4541516 0.060110655 0.52678174 -0.34899086 -0.16032727 0.20992985 -0.4737236 0.013482515 0.2554706 0.06150915 -0.31700566 0.039500646 0.06371354 0.5249642 0.07958274 0.12690331 -0.17835356 -0.34676796 0.42592344 0.018242208 0.51711315 -0.28780952 0.49716908 0.1143016 0.19749281 0.17999932 0.13943982 -0.30056104 0.15092066 -0.15073429 0.34290564 0.6574111 -0.5476422 0.2208811 -0.5027678 -0.2474381 -0.5327694 -0.0447132 0.39159364 -0.30364612 0.014050398 -0.5608622 0.26610312 -0.0013795126 0.005600556 -0.46930152 -0.2010243 0.16700415 -0.44546124 0.07738283 0.2252018 -0.29243395 0.031628493 -0.19855857 -0.8777005 -0.12411263 0.07856089 -0.18774064 -0.26260757 -0.46918514 0.52817446 0.26422215 0.1609501 -0.15819268 0.073563434 -0.4307726 0.30971795 0.09846427 -0.25593638 0.12857744 0.7140238 -0.34468004 0.23494999 -0.36617777 0.15084676 0.27883953 0.035912067 -0.15090634 0.7232062 0.49560332 0.24297993 0.5533388 -0.23375846 0.008722754 0.046254795 -0.40485585 -0.16367826 -0.43445098 -0.1786969 0.28477427 0.47713423 -0.014003623 -0.2743968 0.047268666 -0.30032668
you -0.34062582 0.008592997 -0.1362944 -0.40491557 -0.13862601 -0.22372471 0.104470484 0.09333793 0.0982374 0.08106009 -0.23401661 -0.29604644 0.021577388 -0.3701002 0.46612984 0.018250689 0.35378706 -0.32885322 0.07303041 -0.19000572 0.097205505 0.19902802 -0.14399886 0.010142678 -0.23574345 -0.32038373 -0.00017103698 -0.3698887 0.15013361 -0.109045886 -0.32926393 0.070648804 -0.0071631586 0.16227679 -0.03341278 0.008615272 -0.17051624 -0.4590673 -0.31287313 0.08421995 0.26512694 0.280002 -0.081979685 0.41207016 0.39719653 -0.22698042 -0.011091208 -0.42042485 0.1880346 0.19607165 0.27318394 -0.6948132 0.33196926 0.12791003 -0.25715655 0.17396598 -0.7018227 -0.27092755 -0.46383372 -0.4043639 -0.24436499 0.14688186 -0.50873005 0.26722044 0.29821122 0.7848419 -0.160001 0.1276776 0.0038797709 0.15419494 -0.29525226 0.32658395 0.85643834 -0.7556732 0.3882743 0.38932914 0.518968 -0.5739758 -0.67848945 0.10808892 -0.30150312 0.05420952 -0.45725837 0.3774471 0.397622 -0.07714669 -0.18987061 0.27604783 0.10515546 0.16248113 0.5444944 0.0029432292 -0.2583409 -0.17040405 0.5356162 0.4773415 0.17688447 0.22852562 0.42537972 0.35624027
/ko -0.33664313 0.76503325 0.010186519 -0.63779545 0.21511719 -0.36469477 -0.053056274 -0.11728981 -0.049026676 -0.45874184 -0.09285128 -0.44814056 -0.34878093 -0.37291938 -0.051676817 -0.37388095 0.120719746 -0.22809044 0.27446243 0.13990416 -0.18368927 0.29382268 0.07063223 0.11803225 -0.18137051 0.030757653 -0.0062897494 -0.30744708 0.51143575 0.60368246 0.020184418 -0.04751577 0.03624281 0.04767955 -0.4419114 0.36262262 -0.40257624 -0.41173935 -0.23482387 -0.48181248 0.24407822 -0.3920639 0.85857064 0.4950375 -0.009121901 0.06413049 -0.34373543 -0.85308284 -0.25523087 0.10192925 -0.40299273 -0.20837654 0.12946227 0.088503376 -0.4062777 -0.21830699 -0.070143156 -0.34068966 -0.11627111 -0.830975 0.4421942 0.24407172 -0.4969419 0.18389985 -0.31444883 -0.16356762 0.0730891 0.10675506 -0.16769703 -0.3838258 -0.3209651 0.07784118 0.5765141 0.24124004 0.4371459 0.41977713 -0.69380623 0.14966063 -0.5927103 0.5283483 0.4694819 -0.2801548 0.02523038 0.53675175 0.6515109 -0.121527664 0.2541268 0.29404956 -0.55233395 -0.32242697 -0.34922785 0.2641334 -0.48136476 -0.0861262 -0.00061379094 0.4094296 -0.013190938 -0.23706254 -0.011216428 -0.008630174
ko -0.4128775 0.8099867 -0.014508008 -0.6136288 0.14535236 -0.3723483 -0.017281314 -0.19519502 -0.035139974 -0.40826944 -0.10296963 -0.4530814 -0.2755774 -0.45524937 -0.06903085 -0.40569234 0.19122736 -0.29439542 0.26441753 0.15202066 -0.15923807 0.24693827 0.047906566 0.104359195 -0.26633447 -0.08752482 0.0015950934 -0.27628717 0.46989343 0.63138306 0.11366026 -0.017014055 0.0060289707 0.0846113 -0.40676713 0.30515856 -0.41626117 -0.4647397 -0.2715126 -0.46023822 0.22385043 -0.38955784 0.83142924 0.47912103 -0.0077386545 0.04002387 -0.32578743 -0.80426705 -0.23264816 0.08737829 -0.35237387 -0.17045964 0.112170234 0.021685662 -0.40806362 -0.19254848 -0.09540268 -0.34139165 -0.10410523 -0.80381536 0.43417266 0.18451679 -0.5395337 0.09365497 -0.27802223 -0.19465728 0.1185779 0.09865114 -0.17124298 -0.3480445 -0.33140203 0.016607987 0.5869936 0.259054 0.4693238 0.43735495 -0.6771631 0.14411278 -0.65608734 0.5096283 0.4579294 -0.22834226 0.051508505 0.53375363 0.631511 -0.1824704 0.25095648 0.33069 -0.5319039 -0.30361864 -0.30701444 0.19069579 -0.5209685 -0.06263278 0.011679385 0.3566144 -0.0005541481 -0.19536395 0.037162296 -0.028678752
in -0.35066745 0.10361585 -0.36414126 -0.39059213 -0.09706112 -0.3000345 -0.11744934 -0.193672 0.1442205 0.01438323 -0.27089489 -0.2425732 -0.07804719 -0.2845022 0.42227817 -0.055664632 0.4916674 -0.22511491 -0.18369637 0.12741642 0.018194465 0.40316346 -0.13528116 0.0068335673 -0.16574727 -0.15803643 -0.043652356 -0.49794504 0.07485297 0.05479169 -0.26440495 -0.0024732396 0.06977629 0.03198005 -0.27832505 0.17399678 -0.46726325 -0.43652776 -0.40826774 0.07152118 0.27000982 0.38832745 0.39687714 0.26362336 0.18523885 -0.20568258 0.12816213 -0.51711094 0.11155261 0.16872416 0.19425882 -0.499584 0.20140395 0.15194933 -0.43007913 -0.057261802 -0.3675718 -0.4538343 -0.39333078 -0.3662681 0.074347354 0.288185 -0.45191973 0.2934463 0.1810715 0.3731507 -0.33347636 0.037635986 -0.0484593 -0.1145368 -0.030657407 -0.073337294 0.5958041 -0.31560144 0.47627857 0.36028424 0.15957786 -0.20570703 -0.4854036 0.2177379 -0.14164108 0.03470781 -0.26065004 0.3199012 0.34483102 -0.015602508 -0.19867125 0.39069623 -0.14842775 -0.02339735 0.41537115 0.07051367 -0.16900726 -0.18282263 0.12437977 0.26727253 -0.14045079 -0.084771074 0.24879959 0.43557408
rb__art"> -0.16683014 0.7583459 0.493603 0.09398112 0.13641134 -0.54125285 -0.068811014 0.6180186 -0.13243262 -0.5406055 0.29370853 -0.48435798 -0.0034372953 0.10011599 0.011177583 -0.46041805 0.11276614 0.0013244497 0.33784932 -0.12794285 0.01905084 -0.10465595 -0.11762695 0.0337751 0.1002063 0.4777236 -0.29536647 0.71263856 -0.082962014 0.22659469 -0.17028284 0.021353586 -0.38467732 -0.11965361 -0.45184258 0.4669185 0.58703893 -0.53013766 0.0059786197 -0.46101505 -0.26942384 -0.40305662 -0.085020564 0.41672274 -0.1380093 -0.21711718 -0.5130265 -0.065424204 0.18278648 0.38290575 -0.632263 -0.23794681 0.27445295 -0.43269235 0.050201382 -0.042456478 -0.028337128 0.09415249 -0.21166375 -0.5340459 0.10780417 -0.35874104 -0.068300866 -0.15576671 -0.47059008 0.6919114 0.26193947 0.18149659 -0.14855611 0.06323867 -0.3079302 0.44668692 0.45311505 -0.015277889 0.2003989 0.7881622 -0.3903174 -0.072374396 -0.5734684 0.13714942 0.22788204 -0.023361376 -0.10399066 0.6409951 0.50400937 0.16977614 0.6267093 -0.35014814 -0.073299356 0.15691382 -0.339418 0.043770313 -0.19488908 -0.4775305 0.30503958 0.611086 0.07479044 -0.23792073 0.16214266 -0.27302492
class="lazyPreview" 0.0018608494 0.55831146 0.2832126 0.07539025 -0.119114555 -0.44354612 0.0040676096 0.54921895 -0.32247558 -0.22746551 0.23377301 -0.43378896 -0.06949458 0.28153324 0.0005832028 -0.33962238 0.06945939 0.11356164 0.448022 0.16309805 0.11761265 -0.17807904 -0.3162404 0.40847442 0.09263982 0.57886004 -0.29652736 0.50599945 0.092199035 0.1770565 0.10613217 0.14966379 -0.2840721 0.060796827 -0.17804493 0.35672605 0.6728781 -0.58186823 0.21847665 -0.4937851 -0.2735445 -0.46302894 -0.029528657 0.34303328 -0.3058505 -0.0553905 -0.48168766 0.26979795 0.045162726 0.07447185 -0.5643494 -0.20811826 0.13484779 -0.35691476 0.037968576 0.1758815 -0.27578434 0.009824364 -0.19233552 -0.8444398 -0.037695047 0.08170049 -0.14936778 -0.23574165 -0.49099317 0.4961781 0.23835538 0.0895784 -0.16469961 0.026001267 -0.33170035 0.31689093 0.034934927 -0.21399659 0.10789147 0.75199354 -0.38878867 0.28700647 -0.29088855 0.19472636 0.29470748 0.021921553 -0.14048454 0.64185685 0.43430284 0.24366346 0.566596 -0.26575723 -0.057616 0.014592983 -0.4354775 -0.17234775 -0.34266585 -0.2559854 0.23593964 0.4206426 -0.026293801 -0.3313529 -0.035729762 -0.29876453
class="rb__art__info"> 0.037512813 0.5737665 0.29328287 0.11238655 -0.10172824 -0.447266 0.12110838 0.5163951 -0.39520413 -0.17495613 0.22952522 -0.48556158 -0.043692842 0.24970864 0.034544777 -0.29876196 0.0465756 0.098801315 0.5321138 0.11415769 0.097159766 -0.15759042 -0.35170662 0.45615622 0.01103116 0.5688558 -0.28329125 0.4780263 0.17646532 0.18764433 0.20167851 0.13983841 -0.27308998 0.13827725 -0.10942623 0.35899535 0.69962037 -0.54304 0.24239194 -0.54092485 -0.21818328 -0.57530963 -0.021691022 0.37894067 -0.3580085 0.050605673 -0.59992677 0.30168986 0.0010027982 -0.037406985 -0.5009686 -0.22535133 0.17064968 -0.40823382 0.045003876 0.2372937 -0.29700926 0.032542035 -0.20837396 -0.9320393 -0.15923522 0.13245498 -0.17372707 -0.23941624 -0.47255147 0.48703283 0.2486739 0.17101698 -0.16732284 0.046710916 -0.44909504 0.30247876 0.07104333 -0.24340072 0.10360121 0.6655602 -0.35938743 0.2752102 -0.32484457 0.20016368 0.27953434 0.02644387 -0.12972027 0.7290118 0.4899597 0.24238817 0.5554486 -0.224929 -0.022671381 0.05403318 -0.45643714 -0.14020926 -0.43876052 -0.16183588 0.2591525 0.44498652 -0.002389917 -0.34446537 0.06102424 -0.30320728
lazyReplace" -0.1041135 0.7014459 0.3848502 0.06521317 0.007447449 -0.5800469 -0.094642006 0.6524253 -0.16367643 -0.41851312 0.25797948 -0.43420598 -0.09432717 0.15286857 0.01802898 -0.41825625 0.09330698 0.033680137 0.34911478 -0.018227277 0.118538864 -0.09230433 -0.20431265 0.21165602 0.09567081 0.54025394 -0.25514424 0.6600354 -0.033883926 0.22545823 -0.049876187 0.066242464 -0.31083712 -0.08665989 -0.39295146 0.47875673 0.65125775 -0.54645157 0.13607751 -0.4961292 -0.28425884 -0.42888063 -0.044767093 0.31813672 -0.23991185 -0.16610351 -0.48632172 0.08153495 0.15965492 0.28618675 -0.6012748 -0.2354568 0.18751743 -0.3956816 0.035471894 0.050431594 -0.08747168 0.013847059 -0.22602363 -0.6685011 0.07276162 -0.13831502 -0.10951002 -0.2393374 -0.44949058 0.6268649 0.25822997 0.1245398 -0.15515499 0.029819742 -0.2579611 0.3609627 0.23375103 -0.04255834 0.19160354 0.8070224 -0.43635032 0.11776998 -0.4403706 0.14286862 0.29032895 -0.050864365 -0.076882 0.64931476 0.4211486 0.21441378 0.6119411 -0.3084846 -0.076571316 0.11147404 -0.32152444 -0.02876095 -0.221814 -0.4218406 0.23845103 0.48087034 -0.004655538 -0.38877976 -0.009617296 -0.24624462
lazyImg_178 -0.11703218 0.70848835 0.40496016 0.06827704 0.028335437 -0.5657167 -0.07773475 0.6619047 -0.15388668 -0.4725029 0.27026966 -0.41853735 -0.08950276 0.15393236 -0.015533445 -0.4278357 0.10155362 0.048017256 0.32674935 -0.033764 0.08132792 -0.08555347 -0.1788336 0.16053264 0.123402156 0.5342803 -0.27186862 0.6987371 -0.064903036 0.24513456 -0.10726586 0.07244043 -0.33868244 -0.121968806 -0.4073495 0.4824248 0.6510944 -0.5553788 0.10462241 -0.49284235 -0.29414195 -0.42278075 -0.047509745 0.35566074 -0.21011478 -0.19200835 -0.4913574 0.06690933 0.18937719 0.32366097 -0.6530772 -0.22412685 0.20187351 -0.40233555 0.027700441 0.012568792 -0.046612628 0.06081182 -0.20569046 -0.6078547 0.1082936 -0.2411894 -0.09849289 -0.2035738 -0.4715548 0.65179235 0.24966903 0.13277891 -0.16774647 0.032330725 -0.25186267 0.39805564 0.28216493 -0.006383437 0.19747418 0.8009803 -0.43507373 0.09662515 -0.4652045 0.14474007 0.27937073 -0.019590525 -0.07729541 0.6387748 0.44660565 0.20308867 0.65370005 -0.32685617 -0.109133236 0.106857896 -0.3341624 -0.021740858 -0.22760987 -0.46128747 0.24313739 0.51380146 0.025818907 -0.37806386 0.036628284 -0.25427988
class="rb__art__link" 0.018759657 0.5829448 0.31909773 0.12716228 -0.088673346 -0.41559574 0.10562978 0.5210995 -0.3832901 -0.16667986 0.2099131 -0.45899594 -0.018717175 0.26110533 0.04794325 -0.33387423 0.042849466 0.11153666 0.5667355 0.13838217 0.09759474 -0.16857666 -0.36395487 0.45140657 0.02833957 0.5305891 -0.30296424 0.47295994 0.17320795 0.21305408 0.17613687 0.13750206 -0.2926378 0.13928539 -0.11412679 0.3469531 0.69880575 -0.5572812 0.24356022 -0.5244675 -0.23681082 -0.5517039 -0.01566255 0.40876773 -0.3394656 0.030724788 -0.5936797 0.3021418 0.0059231343 -0.038084563 -0.49243173 -0.19887905 0.16851997 -0.4256104 0.06350437 0.22834384 -0.30804422 0.041093875 -0.17438418 -0.93586785 -0.14351094 0.12567954 -0.18027964 -0.25974473 -0.48744157 0.4687835 0.24634802 0.16592683 -0.1881869 0.02562493 -0.43262002 0.33102462 0.094432965 -0.25697938 0.11075562 0.680562 -0.35035315 0.26191708 -0.3615992 0.18644433 0.2647158 0.04863606 -0.12850988 0.71367013 0.52100116 0.22884223 0.5493569 -0.22985543 0.008422507 0.042022094 -0.45702833 -0.14575806 -0.45967653 -0.17503995 0.2908679 0.4681979 0.032552037 -0.31506073 0.082591936 -0.33496878
lazyImg -0.13657074 0.73576754 0.43597114 0.08151289 0.08738587 -0.55696005 -0.06682938 0.6603262 -0.12322283 -0.5046072 0.27357218 -0.44822514 -0.07031275 0.11183724 0.015768433 -0.43094084 0.116166405 0.015775494 0.33452815 -0.09427471 0.06189346 -0.062818184 -0.11141945 0.087797634 0.09895771 0.48710686 -0.24180806 0.68711424 -0.065003745 0.25087652 -0.115193 0.023166087 -0.31777513 -0.14102702 -0.42831713 0.48612547 0.61769825 -0.53230435 0.0655856 -0.48250097 -0.27670404 -0.39281604 -0.07770183 0.37019682 -0.17691402 -0.18878971 -0.48956394 -0.02049551 0.20103946 0.33198616 -0.6295461 -0.23134716 0.22260983 -0.38610145 0.04088025 -0.021940386 -0.027033541 0.06823585 -0.1972395 -0.5560221 0.1029025 -0.27038783 -0.104885876 -0.17529158 -0.4674613 0.66590387 0.22326261 0.15462585 -0.15165074 0.03429044 -0.2931963 0.4031266 0.35344616 -0.010186556 0.19388652 0.7619313 -0.39603433 -0.0052712397 -0.5395275 0.13993041 0.25339308 -0.034603223 -0.07411759 0.64022386 0.47764468 0.19276614 0.62260264 -0.32099622 -0.10029576 0.13318421 -0.3244285 -0.0029077702 -0.19965574 -0.4671143 0.28570676 0.5444185 0.054780412 -0.32380098 0.09749756 -0.26693383
class="rb__art__text" -0.050733034 0.6402664 0.4588762 0.103279196 0.04037153 -0.31655172 0.14929208 0.42095205 -0.3595013 -0.24604993 0.2674698 -0.4608756 0.10763962 0.18580912 -0.011508173 -0.424822 0.04072734 0.087656766 0.60558033 0.12687492 0.033971295 -0.2223923 -0.2598609 0.29639673 -0.0136140855 0.5037581 -0.2991968 0.55340225 0.13976859 0.2430352 0.104547985 0.102392614 -0.43250793 0.15708593 -0.16187124 0.30933845 0.70782274 -0.5355764 0.09386077 -0.46745133 -0.27791122 -0.5356928 -0.029697992 0.53885 -0.2094603 -0.018838165 -0.5627958 0.1625185 0.0035968684 0.0009724791 -0.5834631 -0.14063872 0.28539103 -0.48475602 0.021961644 0.11717997 -0.2943106 0.10709534 -0.10929441 -0.8745207 -0.09399097 -0.081441954 -0.16080193 -0.19519588 -0.49722713 0.45405656 0.30728942 0.16798352 -0.25597462 -0.03279855 -0.55357915 0.41356266 0.23170926 -0.18196382 0.022384219 0.66492295 -0.42254052 0.1858765 -0.4536033 0.24422877 0.2626544 0.036378015 -0.13551559 0.7080522 0.6474665 0.20221719 0.55071604 -0.34667262 0.043993335 0.049705982 -0.5780284 -0.079368904 -0.47098458 -0.2756911 0.31814492 0.5645646 0.17587791 -0.1300572 0.23855677 -0.45086315
class="rb__art__img -0.14932817 0.73975426 0.45614687 0.08014483 0.13415164 -0.55990326 -0.08046588 0.6274 -0.13755178 -0.51570946 0.28055128 -0.4294704 -0.025451932 0.08833197 0.03518231 -0.46101895 0.11030133 0.040715348 0.306345 -0.1120671 0.039144162 -0.07887561 -0.099132 0.047534477 0.10053561 0.46656883 -0.25029433 0.67247564 -0.074476436 0.24333853 -0.15282194 0.019961854 -0.35262004 -0.15030749 -0.44553027 0.49313277 0.5893279 -0.49636248 0.00797106 -0.4730189 -0.2455636 -0.3800822 -0.09007407 0.3752821 -0.15856591 -0.21981227 -0.50099534 -0.036589585 0.19694287 0.35170713 -0.6302271 -0.25496522 0.26013684 -0.39997324 0.019854246 -0.037084013 -0.041291725 0.06724598 -0.1945325 -0.5199576 0.12637834 -0.30770126 -0.089584775 -0.17784007 -0.4382531 0.6919821 0.24980132 0.15921257 -0.16646981 0.03339589 -0.29912028 0.43247977 0.40665033 0.003179568 0.18220125 0.78235894 -0.37651107 -0.020021046 -0.5502873 0.11568774 0.23538983 -0.056537088 -0.117040895 0.633676 0.45362905 0.18965746 0.6133208 -0.36389768 -0.08183903 0.1467909 -0.32385585 0.037465397 -0.18919928 -0.47913888 0.2866917 0.5598662 0.07789304 -0.277047 0.117034495 -0.2644895
class="rb__art__subrubric" -0.10171402 0.7566225 0.50364745 0.10879205 0.20038223 -0.55999285 -0.10504361 0.6652955 -0.14015643 -0.5238632 0.2770278 -0.45799035 -0.018635975 0.10626582 0.064001344 -0.4541512 0.13424754 -0.002738735 0.33427545 -0.1839477 -0.0022499254 -0.057402752 -0.12932348 0.032007318 0.09564975 0.48421746 -0.28083417 0.6899611 -0.066964254 0.2217953 -0.2078888 -0.0314276 -0.34936106 -0.15288638 -0.45709395 0.4759994 0.54604423 -0.4439578 -0.0035487064 -0.43395364 -0.21396926 -0.38203573 -0.13145837 0.43538368 -0.1383216 -0.1770789 -0.54967225 -0.051824722 0.17328387 0.3811115 -0.60366744 -0.27321747 0.30015862 -0.40556517 0.09031731 -0.010515115 -0.048418846 0.09292081 -0.19822042 -0.5178671 0.045053765 -0.33974674 -0.07243868 -0.14622374 -0.48350468 0.6976524 0.24521112 0.18404779 -0.13360246 0.064878725 -0.33866972 0.44933537 0.47075033 -0.08459187 0.18468572 0.78000844 -0.28434953 -0.1191105 -0.62164557 0.08826635 0.18066394 -0.0105951475 -0.14157173 0.7022173 0.49842834 0.19493112 0.55828154 -0.36331984 -0.07625049 0.20142196 -0.33584285 0.048713084 -0.19550402 -0.4563205 0.2791487 0.64116263 0.060985554 -0.20856866 0.18088707 -0.27110964
class="rubric__articles__item -0.16959102 0.78652114 0.52400476 0.08573805 0.23234932 -0.52585065 -0.05036846 0.5935935 -0.1377227 -0.54664546 0.292516 -0.46837798 0.043110974 0.07690875 0.06815223 -0.48320934 0.10443193 0.020514078 0.33240893 -0.17255439 -0.010342186 -0.07865221 -0.102479056 -0.059765924 0.10408095 0.43252796 -0.2786659 0.6905169 -0.08498072 0.23895834 -0.18911475 -0.03821912 -0.40326527 -0.13105467 -0.45340297 0.46167284 0.5240354 -0.48216233 -0.035881344 -0.45715436 -0.2522134 -0.40335307 -0.08506027 0.47387752 -0.09544279 -0.21172842 -0.50140697 -0.13218758 0.14680292 0.39482623 -0.6372653 -0.24416012 0.32017058 -0.42947167 0.056573033 -0.052794065 -0.022522576 0.12364065 -0.17266613 -0.47751543 0.11883352 -0.40605354 -0.07825768 -0.14337832 -0.46276605 0.73680645 0.25464264 0.21026893 -0.16179118 0.044132125 -0.33874458 0.4699418 0.53857166 -0.013943451 0.17800842 0.758912 -0.34801328 -0.12303426 -0.6221604 0.117351554 0.1862821 -0.0523802 -0.14504394 0.6409985 0.5507584 0.19520101 0.5882995 -0.38761202 -0.061661217 0.14492379 -0.39153147 0.044946786 -0.18272395 -0.4900992 0.32076982 0.6357905 0.11580219 -0.17250684 0.23781185 -0.28977877
class="IconContainer -0.55682117 0.15598233 0.0027039982 -0.38057795 -0.59283495 -0.34662008 0.7579284 0.421479 -0.51393336 -0.5949641 0.29065117 -0.837848 -0.80927414 0.6074267 -0.33777973 -0.020681238 0.22270976 0.76701474 0.010651296 0.26222318 0.09842995 -0.053500585 -0.14906266 0.37940034 0.23468225 -0.17700036 0.0083815735 -0.03086655 -0.03643697 -0.27531058 -0.28051496 0.5539779 0.41329727 -0.32267064 0.02721393 0.21886429 0.37207156 -0.8921428 -0.008499126 0.03733552 0.5041974 -0.40703875 0.31612659 0.35191122 -0.2529441 -0.48356852 -0.120454036 0.081997134 0.62795055 0.5148757 -0.35395128 -0.6365506 0.048390552 0.23853636 0.17111339 0.59596866 -0.13714339 0.16715851 -0.2491993 -0.5647557 0.014576818 -0.23356563 -0.325488 0.26628837 -0.38339648 0.52359563 -0.79736197 0.117976844 -0.111161865 0.54038244 -0.2878539 0.16071299 0.47630548 -0.88198143 0.9363434 0.4739884 0.2833448 -0.030712886 -0.28386644 0.6017587 0.08162785 -0.1156592 -0.599397 0.13615143 0.07389154 0.2383524 0.37426892 0.19897783 -0.49291378 -0.030219762 0.19305551 -0.34295917 -0.44575983 -0.12227227 0.54652214 0.29907092 -0.26422578 -0.45163587 0.36836943 0.083370104
or -0.20834279 0.076875426 -0.13032915 -0.2679951 0.012512327 -0.27592462 -0.05685664 0.14272736 0.19729221 0.008942933 -0.22223079 -0.13040242 -0.03815556 -0.24289052 0.51120466 0.011587993 0.26797572 -0.22714993 0.07364355 -0.15210865 -0.023369173 0.26695862 -0.050388772 -0.041276533 -0.1464022 -0.06493239 0.067517325 -0.36814415 0.16498977 -0.0040610954 -0.3425621 -0.08955187 0.02544324 0.06544507 -0.12801272 0.14130168 -0.18400344 -0.26568633 -0.20857768 -0.0005461513 0.24701215 0.24079491 0.06429946 0.25048798 0.2199573 -0.11927042 -0.13782991 -0.4661402 0.09884326 0.09596529 0.19791786 -0.6131568 0.27821913 0.20259814 -0.22469725 0.1049377 -0.43418607 -0.27939767 -0.4600255 -0.33830106 -0.15987213 0.24797542 -0.36812437 0.33256915 0.25517574 0.58732814 -0.1498031 0.0953882 0.022428775 0.019937152 -0.18212898 0.28549364 0.66897213 -0.5116521 0.2843875 0.26544318 0.3938706 -0.39203304 -0.42672554 0.025590014 -0.22534828 0.037063092 -0.24369173 0.35779825 0.33007514 -0.040021256 -0.20976551 0.24770704 0.12082109 0.1274549 0.405144 0.13317181 -0.17408918 -0.18152481 0.30934387 0.48728395 0.1324351 0.028049087 0.23389494 0.36068422
for -0.3229888 0.15765132 -0.22233334 -0.16217604 -0.04702457 -0.34176427 -0.023009738 -0.060153008 0.21018597 -0.04604218 -0.23013583 -0.20574133 -0.037771463 -0.21002916 0.53436273 0.040945373 0.36985126 -0.19961874 -0.11475241 -0.069898576 -0.015348169 0.3713368 -0.08916327 -0.07051704 -0.116330706 -0.16943513 0.016418604 -0.39369383 0.036702875 0.0038429017 -0.19402687 -0.03974887 0.077347435 -0.012822425 -0.20095778 0.20556818 -0.33634415 -0.3592442 -0.23016462 -0.0143960435 0.27042392 0.26876593 0.17720138 0.22564155 0.08207117 -0.17127039 -0.04944434 -0.41579065 0.2046202 0.11263917 0.30092672 -0.62801325 0.21726394 0.04871294 -0.23405252 0.06877906 -0.24964525 -0.35108545 -0.50426817 -0.28463656 -0.089921534 0.27892187 -0.3412645 0.263563 0.21268904 0.5657785 -0.22992373 0.17819816 -0.009572327 -0.0035143546 -0.06947989 0.1285811 0.6545694 -0.39053687 0.48539585 0.34867185 0.38027215 -0.35606042 -0.4136605 -0.044484735 -0.18020158 0.07690274 -0.22406203 0.39610338 0.32145575 -0.035376493 -0.12732182 0.34180948 -0.029189216 0.15058923 0.45417762 0.12020593 -0.13477318 -0.16097932 0.22141951 0.33875868 -0.054355323 -0.1249476 0.39556015 0.36821884
if -0.7545941 0.6771513 -0.36732295 -0.06257148 -0.13683844 -0.5566016 -0.11687426 -0.375215 0.31405032 -0.04963112 -0.41760123 -0.32260624 0.10314369 -0.24512264 0.5870676 -0.15193285 0.62048215 -0.05075736 -0.12332626 0.22867829 0.054382097 0.54438424 -0.13570239 -0.08477928 -0.19289623 -0.13337885 -0.025885958 -0.46769214 -0.04663352 0.23962161 0.081829906 0.10093809 -0.016362803 -0.03753262 -0.46307647 0.7070328 -0.4209378 -0.61165446 -0.36753148 -0.0028821107 0.35580358 0.011942844 0.70586324 0.24944222 -0.35856098 -0.40745783 -0.23611669 -0.5045522 0.21189752 -0.029854268 0.25147647 -0.49235794 0.25805926 -0.19267073 -0.50965273 0.026799584 0.13878511 -0.469312 -0.6328508 -0.48129463 0.22327058 0.34838414 -0.3902153 0.24828193 0.19139302 0.19496338 -0.3967591 0.39131016 -0.15132573 -0.18331254 0.06873885 -0.2208308 0.5089723 0.013172859 0.77174115 0.5536582 -0.045213558 0.014068136 -0.32424515 0.08943863 0.030656982 -0.0070665576 -0.035848852 0.6300209 0.47492304 -0.08432776 0.071504205 0.5456878 -0.19151786 0.03373006 0.36844677 0.18050247 -0.36707807 -0.32804617 -0.00711842 0.27982524 -0.18646003 -0.6406044 0.612918 0.30832624
border: -0.38254812 0.27409852 0.009802872 -0.12801336 -0.14179145 0.033883166 -0.1633376 0.19534674 0.01780102 0.0814 -0.24694741 0.09424025 0.35310113 0.2105722 0.096372776 -0.60367066 0.3202448 0.17658648 0.44774145 0.63499033 0.1851583 -0.24075688 0.17967057 0.015911957 -0.34587094 0.49461195 0.11953101 -0.309712 0.1357065 0.50893295 -0.16586882 0.10770304 -0.36432904 -0.060172237 -0.046578966 0.5635674 0.61983037 -0.51162684 -0.14166456 0.025653562 -0.005142687 -0.09193473 0.2048549 0.3976173 -0.18824899 -0.3795464 -0.1723083 -0.13225417 0.33620918 -0.39218044 -0.3061825 -0.32303867 0.53976077 0.12024465 -0.54016316 -0.0066168103 -0.41717917 -0.048305716 -0.08495893 -0.8719516 0.12703618 0.1917882 -0.29227757 0.2916446 0.018587237 -0.071919955 -0.23061927 0.12221675 -0.5510183 -0.19056477 -0.22473599 0.25762388 0.23380345 -0.046694677 -0.07612587 0.12369097 -0.38201424 0.6438307 -0.0004991739 0.497166 0.00513724 -0.013474572 0.18545087 0.38338104 0.40764913 -0.11698121 0.17710404 -0.03853978 0.3310304 -0.14565693 -0.20424038 0.18821101 -0.6539066 -0.3437438 -0.10160079 0.5911894 0.52983546 -0.277809 0.056724343 -0.009047583
width: -0.41476768 0.29848135 -0.13814774 -0.11966441 -0.09685346 -0.02218593 -0.20490658 0.06602392 0.13064916 0.1484419 -0.24503535 0.14910391 0.4704126 0.12515977 0.12831263 -0.5267489 0.33370373 0.07288654 0.41578227 0.4766344 0.24827458 0.0016189602 0.04267284 -0.044307325 -0.27476916 0.30123034 0.011756565 -0.4018186 -0.052944485 0.40717316 -0.09310811 0.10695432 -0.3043706 -0.02404637 -0.14744589 0.67316186 0.3355556 -0.39559433 -0.16807333 0.03757717 0.062496137 0.037425566 0.17366481 0.38214314 -0.24789579 -0.2631134 -0.12613386 -0.21593393 0.26354745 -0.2851898 -0.25211707 -0.22016828 0.457255 0.05394804 -0.50059974 -0.043051306 -0.13720697 -0.074760236 -0.16177237 -0.70070213 0.26724246 0.16091861 -0.25348213 0.21206655 0.051554672 0.0034171513 -0.30750072 0.048312135 -0.47820094 -0.17429295 -0.0745687 0.18900865 0.19962157 0.045369677 0.099173136 0.10162502 -0.39657766 0.48655263 -0.15870227 0.45957068 -0.08286309 0.05076856 0.071841925 0.4332063 0.44912115 -0.054574005 0.16899498 0.0008079296 0.21872404 -0.07714977 -0.17553186 0.17218323 -0.62473977 -0.3711638 -0.11140223 0.49784005 0.28192055 -0.32445997 0.14607312 -0.07173458
<p 0.15343153 -0.041329607 -0.16684075 -0.32320789 -0.07941009 -0.1656753 -0.039897602 0.14683476 0.09108247 -0.2826804 0.12405075 -0.2494913 -0.3668975 -0.082871534 0.33759376 0.16544415 0.24851964 0.032491885 -0.076108225 -0.016299587 0.023568718 0.26294434 -0.22675686 0.08255883 0.12200743 -0.016482921 -0.09069564 -0.30409846 0.21213707 -0.27887383 -0.5126595 0.04915553 0.027470337 -0.11436549 -0.15794773 0.010163446 -0.3864275 -0.27531072 -0.18111679 -0.12086293 0.1893421 0.18452334 0.10258538 0.38070524 0.23428726 -0.005427482 0.09846244 -0.094420604 0.1699014 0.45568082 0.017608315 -0.5243187 0.2693357 0.2263993 -0.023325324 0.10502142 -0.5576868 -0.31860578 -0.3540029 -0.39971858 -0.017799776 0.16047162 -0.26432034 0.4897009 0.02679482 0.6354181 -0.13601096 0.050856445 0.022558063 -0.06404541 0.03297379 0.20616136 0.49768257 -0.8091759 0.4122462 0.36353713 0.3053048 -0.45161796 -0.441053 0.14190216 -0.21391843 0.05578694 -0.5030488 0.15690637 0.39403388 0.009913963 -0.01363496 -0.05550322 -0.3260278 0.037926227 0.15276901 0.010799454 0.0026729193 -0.13811159 0.21203005 0.29318285 -0.10531387 0.12439328 0.09476157 0.24949875
2px -0.49692154 0.4168569 0.008466486 -0.06882742 -0.15602562 -0.074238606 -0.17199546 0.15773013 0.047174886 0.093033336 -0.26139268 0.04014125 0.45440468 0.21066357 0.08911103 -0.7040255 0.36976728 0.15493394 0.45328707 0.6360971 0.2565033 -0.21030934 0.118228346 -0.000796786 -0.42768902 0.48157215 0.06424895 -0.2620396 0.1282359 0.6280326 -0.036815584 0.11927517 -0.43209895 -0.097425856 -0.11924279 0.66850317 0.66404724 -0.57234913 -0.13567618 -0.052685786 -0.052740328 -0.17181605 0.2780184 0.4260786 -0.30650648 -0.4538288 -0.27617612 -0.10379481 0.34495783 -0.46714944 -0.3164751 -0.2829251 0.55987155 0.015086625 -0.57115275 0.010331945 -0.38399124 -0.060581245 -0.118177585 -0.9215047 0.118029684 0.17770372 -0.27812573 0.20345832 -0.022973211 -0.074032 -0.20340426 0.17098685 -0.5356404 -0.23306274 -0.22376831 0.22457302 0.21804923 0.05942588 -0.033503003 0.21635205 -0.4600255 0.709754 -0.05299304 0.42964375 0.04807252 0.048684176 0.23045409 0.4579057 0.4723595 -0.14173655 0.2722209 -0.014192315 0.3633818 -0.15201028 -0.19983818 0.18210703 -0.729909 -0.41693273 -0.14179154 0.6124237 0.5861675 -0.36408168 0.17004578 -0.060749926
background-color: -0.41298038 0.34923652 0.1462537 -0.025564019 -0.065458104 -0.15486246 -0.0946363 0.10539607 0.076560006 -0.0088402 -0.260204 0.09332346 0.31695682 0.18720792 0.31724814 -0.5509251 0.34714288 0.19441637 0.073714115 0.55710614 0.052033387 -0.18516147 0.2622956 -0.0032104324 -0.35307652 0.47481844 0.1405418 -0.16784707 0.17201258 0.59336174 -0.1623569 -0.06843001 -0.24086662 -0.26229885 -0.020710722 0.5293274 0.6479752 -0.47400388 -0.17602126 -0.0025398375 -0.03847302 -0.16277778 0.31858984 0.2739676 -0.17476027 -0.48143256 -0.2784769 -0.08894361 0.3241908 -0.4067225 -0.27510998 -0.33274287 0.46263105 0.12626371 -0.5850299 -0.06327173 -0.2602896 -0.17801039 -0.10029565 -0.65500915 0.035118006 0.1835848 -0.23775487 0.34285066 0.013318934 -0.05642887 -0.19714798 0.2616728 -0.49303007 -0.24790104 -0.26326096 0.19896626 0.37847298 0.05022286 -0.030830758 0.09273178 -0.22696717 0.56531376 0.08967772 0.34352311 0.04135234 -0.021414211 0.34295076 0.39374614 0.3743617 -0.075765505 0.00031045836 0.08828169 0.25882807 -0.16546848 -0.10579074 0.1803008 -0.43870693 -0.398195 -0.07684594 0.51199305 0.45509008 -0.35552317 0.1470619 0.06645087
height: -0.4353953 0.35819072 -0.11365779 -0.14804019 -0.15219936 0.0031098924 -0.21184036 0.05220904 0.09309715 0.15945835 -0.2429015 0.1375476 0.4926913 0.14481468 0.058813922 -0.58018994 0.34008145 0.090675615 0.4778104 0.58598447 0.27494758 -0.0818467 0.0020777944 -0.005274442 -0.29217476 0.30130973 0.031305533 -0.36542618 -0.04144911 0.4345803 -0.027678058 0.18315862 -0.3447894 0.0045796717 -0.13913009 0.6806192 0.41935495 -0.49272987 -0.17831716 0.00016749935 0.04429412 0.0117360335 0.19575371 0.4535631 -0.2731348 -0.3358255 -0.12741797 -0.15680827 0.2887442 -0.33509958 -0.33000603 -0.19543058 0.47842753 0.022296902 -0.5080777 -0.029111296 -0.23326989 -0.08474401 -0.13041694 -0.84186417 0.31277186 0.18058379 -0.33110967 0.19555096 0.018088045 -0.01989965 -0.26102066 -0.019161431 -0.5108921 -0.21366845 -0.10838907 0.18487152 0.15832537 0.00923195 0.10232509 0.19157752 -0.45565274 0.55503464 -0.16209508 0.5410925 -0.022419339 0.04051275 0.07417784 0.46585542 0.510193 -0.072660826 0.2613417 -0.024075175 0.21655211 -0.14896074 -0.24715827 0.15636238 -0.7284124 -0.40796977 -0.09434428 0.51063925 0.27641878 -0.3275968 0.15846093 -0.120152466
